tree
version=v4
num_class=1
num_tree_per_iteration=1
label_index=0
max_feature_idx=9
objective=regression
feature_names=Total_Volume 4046 4225 4770 Total_Bags Small_Bags Large_Bags XLarge_Bags year week
feature_infos=[774.20000000000005:4270.2799999999997] [0:1049.5] [30.530000000000001:536.20000000000005] none [503.44:3775.4200000000001] [503.44:3775.4200000000001] none none [2015:2017] [1:53]
tree_sizes=459 478 478 477 480 478 480 479 479 480 480 481 398 481 399 477 480 477 483 482 481 481 482 479 400 569 480 484 483 473 485 483 483 400 485 481 480 481 483 484 483 484 485 484 484 484 484 484 399 483 481 485 485 483 487 483 400 481 402 484 484 483 486 486 484 481 481 482 399 483 486 572 487 486 486 488 486 488 487 491 487 487 487 489 488 485 486 572 571 487 484 485 485 486 489 485 402 486 488 486 484 487 488 402 487 402 402 483 487 488 486 484 487 485 399 487 488 487 401 490 487 488 486 490 489 487 487 488 488 487 487 489 488 488 489 484 485 402 487 486 487 488 489 489 575 488 488 488 489 486 487 488 488 490 490 489 488 476 489 475 490 489 488 488 489 486 478 490 479 491 485 485 486 403 489 401 404 488 401 404 484 487 489 486 487 488 489 487 489 490 489 488 487 485 486 491 492 488 489 492

Tree=0
num_leaves=4
num_cat=0
split_feature=8 1 2
split_gain=0.522993 0.478335 0.01024
threshold=2015.5000000000002 50.210000000000001 140.82000000000002
decision_type=2 2 2
left_child=2 -2 -1
right_child=1 -3 -4
leaf_value=1.826371424061187 1.8023571382616721 1.8198928522651956 1.823171422949933
leaf_weight=20 35 28 20
leaf_count=20 35 28 20
internal_value=1.81675 1.81015 1.82477
internal_weight=0 63 40
internal_count=103 63 40
is_linear=0
shrinkage=1


Tree=1
num_leaves=4
num_cat=0
split_feature=8 1 2
split_gain=0.423624 0.387452 0.0082944
threshold=2015.5000000000002 50.210000000000001 140.82000000000002
decision_type=2 2 2
left_child=2 -2 -1
right_child=1 -3 -4
leaf_value=0.0086628572992049156 -0.012949999608099462 0.0028321428235098473 0.0057828566292300824
leaf_weight=20 35 28 20
leaf_count=20 35 28 20
internal_value=0 -0.00593571 0.00722286
internal_weight=0 63 40
internal_count=103 63 40
is_linear=0
shrinkage=0.1


Tree=2
num_leaves=4
num_cat=0
split_feature=8 1 2
split_gain=0.343136 0.313836 0.00671847
threshold=2015.5000000000002 50.210000000000001 140.82000000000002
decision_type=2 2 2
left_child=2 -2 -1
right_child=1 -3 -4
leaf_value=0.007796571843791753 -0.011654999532370963 0.0025489284723464933 0.0052045708888908849
leaf_weight=20 35 28 20
leaf_count=20 35 28 20
internal_value=0 -0.00534214 0.00650057
internal_weight=0 63 40
internal_count=103 63 40
is_linear=0
shrinkage=0.1


Tree=3
num_leaves=4
num_cat=0
split_feature=8 1 2
split_gain=0.27794 0.2544 0.00544196
threshold=2015.5000000000002 32.675000000000004 140.82000000000002
decision_type=2 2 2
left_child=2 -2 -1
right_child=1 -3 -4
leaf_value=0.0070169147395063199 -0.012145584162876562 0.00069531353397501842 0.0046841137134470048
leaf_weight=20 27 36 20
leaf_count=20 27 36 20
internal_value=0 -0.00480793 0.00585051
internal_weight=0 63 40
internal_count=103 63 40
is_linear=0
shrinkage=0.1


Tree=4
num_leaves=4
num_cat=0
split_feature=8 1 2
split_gain=0.225131 0.216337 0.00440799
threshold=2015.5000000000002 50.210000000000001 140.82000000000002
decision_type=2 2 2
left_child=2 -2 -1
right_child=1 -3 -4
leaf_value=0.0063152232393622401 -0.0095684474068028595 0.0022245046117209963 0.0042157025169581178
leaf_weight=20 35 28 20
leaf_count=20 35 28 20
internal_value=0 -0.00432714 0.00526546
internal_weight=0 63 40
internal_count=103 63 40
is_linear=0
shrinkage=0.1


Tree=5
num_leaves=4
num_cat=0
split_feature=8 1 9
split_gain=0.154176 0.153441 0.0635724
threshold=2015.5000000000002 57.540000000000006 23.500000000000004
decision_type=2 2 2
left_child=2 -2 -1
right_child=1 -3 -4
leaf_value=0.0010199589189141989 -0.0067766207711477027 0.0035719298190720707 0.0088976964997571142
leaf_weight=20 38 23 21
leaf_count=20 38 23 21
internal_value=0 -0.00287471 0.0050549
internal_weight=0 61 41
internal_count=102 61 41
is_linear=0
shrinkage=0.1


Tree=6
num_leaves=4
num_cat=0
split_feature=8 1 9
split_gain=0.124883 0.128092 0.0514936
threshold=2015.5000000000002 29.020000000000003 23.500000000000004
decision_type=2 2 2
left_child=2 -2 -1
right_child=1 -3 -4
leaf_value=0.00091796306893229492 -0.0080861490906681873 0.0012314510402373143 0.0080079266934522577
leaf_weight=20 25 36 21
leaf_count=20 25 36 21
internal_value=0 -0.00258724 0.00454941
internal_weight=0 61 41
internal_count=102 61 41
is_linear=0
shrinkage=0.1


Tree=7
num_leaves=4
num_cat=0
split_feature=8 1 9
split_gain=0.101155 0.108465 0.0417098
threshold=2015.5000000000002 57.540000000000006 23.500000000000004
decision_type=2 2 2
left_child=2 -2 -1
right_child=1 -3 -4
leaf_value=0.0008261667471379042 -0.0056091036475998798 0.0030915915156188218 0.0072071339713320852
leaf_weight=20 38 23 21
leaf_count=20 38 23 21
internal_value=0 -0.00232851 0.00409447
internal_weight=0 61 41
internal_count=102 61 41
is_linear=0
shrinkage=0.1


Tree=8
num_leaves=4
num_cat=0
split_feature=9 8 9
split_gain=0.0880755 0.115006 0.250077
threshold=37.500000000000007 2015.5000000000002 16.500000000000004
decision_type=2 2 2
left_child=1 -1 -3
right_child=-2 2 -4
leaf_value=0.0035256441640426762 0.0053850128365447751 0.0019152822214420194 -0.012634818548602718
leaf_weight=29 25 27 21
leaf_count=29 25 27 21
internal_value=0 -0.00144643 -0.00445039
internal_weight=0 77 48
internal_count=102 77 48
is_linear=0
shrinkage=0.1


Tree=9
num_leaves=4
num_cat=0
split_feature=9 8 9
split_gain=0.0713411 0.0931552 0.202562
threshold=37.500000000000007 2015.5000000000002 16.500000000000004
decision_type=2 2 2
left_child=1 -1 -3
right_child=-2 2 -4
leaf_value=0.0031730798506659679 0.0048465116471052179 0.0017237540713890835 -0.011371336868476301
leaf_weight=29 25 27 21
leaf_count=29 25 27 21
internal_value=0 -0.00130178 -0.00400535
internal_weight=0 77 48
internal_count=102 77 48
is_linear=0
shrinkage=0.1


Tree=10
num_leaves=4
num_cat=0
split_feature=8 9 4
split_gain=0.0363257 0.0591439 0.0166055
threshold=2015.5000000000002 21.500000000000004 1051.0050000000003
decision_type=2 2 2
left_child=2 -2 -1
right_child=1 -3 -4
leaf_value=0.004628014546522701 0.0017119176785326412 -0.0049003428010716259 0.0006467234948650003
leaf_weight=22 31 24 20
leaf_count=22 31 24 20
internal_value=0 -0.00117343 0.00273216
internal_weight=0 55 42
internal_count=97 55 42
is_linear=0
shrinkage=0.1


Tree=11
num_leaves=4
num_cat=0
split_feature=8 9 4
split_gain=0.0294238 0.0479066 0.0134504
threshold=2015.5000000000002 21.500000000000004 1051.0050000000003
decision_type=2 2 2
left_child=2 -2 -1
right_child=1 -3 -4
leaf_value=0.0041652129328047689 0.0015407260867857165 -0.0044103085121605544 0.0005820511886849999
leaf_weight=22 31 24 20
leaf_count=22 31 24 20
internal_value=0 -0.00105609 0.00245895
internal_weight=0 55 42
internal_count=97 55 42
is_linear=0
shrinkage=0.1


Tree=12
num_leaves=3
num_cat=0
split_feature=9 2
split_gain=0.0254493 0.0585539
threshold=9.5000000000000018 187.01500000000001
decision_type=2 2
left_child=-1 -2
right_child=1 -3
leaf_value=-0.0025713953866877341 0.0041282067119420788 -0.0014605584768823496
leaf_weight=22 37 38
leaf_count=22 37 38
internal_value=0 0.00129657
internal_weight=0 75
internal_count=97 75
is_linear=0
shrinkage=0.1


Tree=13
num_leaves=4
num_cat=0
split_feature=9 8 1
split_gain=0.020614 0.0487943 0.0684147
threshold=9.5000000000000018 2015.5000000000002 38.415000000000006
decision_type=2 2 2
left_child=-1 -2 -3
right_child=1 2 -4
leaf_value=-0.0023142557567387648 0.0039678666084107727 -0.0053416253253817563 0.0028306299820542338
leaf_weight=22 34 20 21
leaf_count=22 34 20 21
internal_value=0 0.00116691 -0.00115584
internal_weight=0 75 41
internal_count=97 75 41
is_linear=0
shrinkage=0.1


Tree=14
num_leaves=3
num_cat=0
split_feature=1 1
split_gain=0.0186199 0.0429216
threshold=25.735000000000003 50.210000000000001
decision_type=2 2
left_child=-1 -2
right_child=1 -3
leaf_value=0.0020660131609091833 -0.0041466985331878635 0.0013836018534170258
leaf_weight=38 23 36
leaf_count=38 23 36
internal_value=0 -0.000772278
internal_weight=0 59
internal_count=97 59
is_linear=0
shrinkage=0.1


Tree=15
num_leaves=4
num_cat=0
split_feature=9 8 9
split_gain=0.0571508 0.103237 0.27891
threshold=39.500000000000007 2015.5000000000002 18.500000000000004
decision_type=2 2 2
left_child=1 -1 -3
right_child=-2 2 -4
leaf_value=0.0020082851739472623 0.0031480537170073541 0.00090002335451446988 -0.01445026069879532
leaf_weight=31 23 29 20
leaf_count=31 23 29 20
internal_value=0 -0.0025081 -0.0053654
internal_weight=0 80 49
internal_count=103 80 49
is_linear=0
shrinkage=0.1


Tree=16
num_leaves=4
num_cat=0
split_feature=9 8 9
split_gain=0.048312 0.0671827 0.183001
threshold=37.500000000000007 2015.5000000000002 16.500000000000004
decision_type=2 2 2
left_child=1 -1 -3
right_child=-2 2 -4
leaf_value=0.0013736119550042626 0.0025130080973246585 0.00086100174566336842 -0.011690010986335223
leaf_weight=29 27 26 21
leaf_count=29 27 26 21
internal_value=0 -0.00241144 -0.0047469
internal_weight=0 76 47
internal_count=103 76 47
is_linear=0
shrinkage=0.1


Tree=17
num_leaves=4
num_cat=0
split_feature=9 8 9
split_gain=0.0391327 0.054418 0.14823
threshold=37.500000000000007 2015.5000000000002 16.500000000000004
decision_type=2 2 2
left_child=1 -1 -3
right_child=-2 2 -4
leaf_value=0.0012362507372644955 0.002261707264740296 0.00077490162176008411 -0.01052100975288167
leaf_weight=29 27 26 21
leaf_count=29 27 26 21
internal_value=0 -0.0021703 -0.00427221
internal_weight=0 76 47
internal_count=103 76 47
is_linear=0
shrinkage=0.1


Tree=18
num_leaves=4
num_cat=0
split_feature=1 9 9
split_gain=0.0354105 0.0374804 0.038657
threshold=57.540000000000006 35.500000000000007 20.500000000000004
decision_type=2 2 2
left_child=1 2 -1
right_child=-2 -3 -4
leaf_value=-0.0013807205570628867 0.0019846763333771378 0.0014693100604095631 -0.0069850748695898801
leaf_weight=32 30 21 20
leaf_count=32 30 21 20
internal_value=0 -0.00209629 -0.00353624
internal_weight=0 73 52
internal_count=103 73 52
is_linear=0
shrinkage=0.1


Tree=19
num_leaves=4
num_cat=0
split_feature=4 0 9
split_gain=0.0307303 0.0345594 0.0389288
threshold=951.45000000000016 2149.5950000000007 13.500000000000002
decision_type=2 2 2
left_child=-1 2 -2
right_child=1 -3 -4
leaf_value=-0.004335646461695433 -0.002044363342144567 -0.0034751483630056364 0.0031428594751140245
leaf_weight=20 23 21 39
leaf_count=20 23 21 39
internal_value=0 3.10006e-05 0.00121857
internal_weight=0 83 62
internal_count=103 83 62
is_linear=0
shrinkage=0.1


Tree=20
num_leaves=4
num_cat=0
split_feature=2 2 1
split_gain=0.0457471 0.0631163 0.0131649
threshold=175.53000000000003 134.10000000000005 50.210000000000001
decision_type=2 2 2
left_child=1 -1 -2
right_child=2 -3 -4
leaf_value=0.0016656248331336039 0.0014287601301718193 -0.0054919434499672874 0.004693316142185636
leaf_weight=28 30 22 21
leaf_count=28 30 22 21
internal_value=0 -0.00148371 0.00277299
internal_weight=0 50 51
internal_count=101 50 51
is_linear=0
shrinkage=0.1


Tree=21
num_leaves=4
num_cat=0
split_feature=2 0 1
split_gain=0.0370552 0.0521397 0.0106636
threshold=175.53000000000003 1470.0350000000001 50.210000000000001
decision_type=2 2 2
left_child=1 -1 -2
right_child=2 -3 -4
leaf_value=0.0013013231645648679 0.0012858841133614382 -0.005290321432985366 0.0042239845674928462
leaf_weight=30 30 20 21
leaf_count=30 30 20 21
internal_value=0 -0.00133533 0.00249569
internal_weight=0 50 51
internal_count=101 50 51
is_linear=0
shrinkage=0.1


Tree=22
num_leaves=4
num_cat=0
split_feature=2 2 1
split_gain=0.0300147 0.0501102 0.00863751
threshold=175.53000000000003 134.10000000000005 50.210000000000001
decision_type=2 2 2
left_child=1 -1 -2
right_child=2 -3 -4
leaf_value=0.0016043459630704353 0.0011572956791496836 -0.0047732613261111763 0.0038015860127329475
leaf_weight=28 30 22 21
leaf_count=28 30 22 21
internal_value=0 -0.0012018 0.00224612
internal_weight=0 50 51
internal_count=101 50 51
is_linear=0
shrinkage=0.1


Tree=23
num_leaves=4
num_cat=0
split_feature=2 0 1
split_gain=0.0243119 0.04133 0.00699639
threshold=175.53000000000003 1470.0350000000001 50.210000000000001
decision_type=2 2 2
left_child=1 -1 -2
right_child=2 -3 -4
leaf_value=0.001265860558487475 0.0010415661117682854 -0.0046028436440974469 0.003421427512131188
leaf_weight=30 30 20 21
leaf_count=30 30 20 21
internal_value=0 -0.00108162 0.00202151
internal_weight=0 50 51
internal_count=101 50 51
is_linear=0
shrinkage=0.1


Tree=24
num_leaves=3
num_cat=0
split_feature=1 9
split_gain=0.0236394 0.0292457
threshold=17.375000000000004 19.500000000000004
decision_type=2 2
left_child=-1 -2
right_child=1 -3
leaf_value=-0.0020959678515619427 -0.00062711002066026674 0.0033488788556250921
leaf_weight=27 37 37
leaf_count=27 37 37
internal_value=0 0.00136088
internal_weight=0 74
internal_count=101 74
is_linear=0
shrinkage=0.1


Tree=25
num_leaves=5
num_cat=0
split_feature=8 2 1 4
split_gain=0.0300173 0.0478483 0.0430558 0.00196263
threshold=2015.5000000000002 245.27500000000001 34.705000000000005 1051.0050000000003
decision_type=2 2 2 2
left_child=3 2 -2 -1
right_child=1 -3 -4 -5
leaf_value=0.0025353580480441452 -0.0069875673274509614 0.0022029055426606818 -0.00050445968462597762 0.0011344199418090283
leaf_weight=20 20 21 21 20
leaf_count=20 20 21 21 20
internal_value=0 -0.00167877 -0.00366695 0.00183489
internal_weight=0 62 41 40
internal_count=102 62 41 40
is_linear=0
shrinkage=0.1


Tree=26
num_leaves=4
num_cat=0
split_feature=8 9 4
split_gain=0.024314 0.0443988 0.00158973
threshold=2015.5000000000002 18.500000000000004 1051.0050000000003
decision_type=2 2 2
left_child=2 -2 -1
right_child=1 -3 -4
leaf_value=0.0022818222478963434 0.0012528868624940516 -0.0041019434691406788 0.0010209779324941337
leaf_weight=20 30 32 20
leaf_count=20 30 32 20
internal_value=0 -0.0015109 0.0016514
internal_weight=0 62 40
internal_count=102 62 40
is_linear=0
shrinkage=0.1


Tree=27
num_leaves=4
num_cat=0
split_feature=5 2 4
split_gain=0.0203963 0.0245709 0.0567405
threshold=950.1350000000001 245.27500000000001 1429.2800000000002
decision_type=2 2 2
left_child=-1 2 -2
right_child=1 -3 -4
leaf_value=-0.0031070067873224618 0.0026427480665131894 0.0034049150068312887 -0.0034643874314497225
leaf_weight=20 29 21 32
leaf_count=20 29 21 32
internal_value=0 0.000454665 -0.000560995
internal_weight=0 82 61
internal_count=102 82 61
is_linear=0
shrinkage=0.1


Tree=28
num_leaves=4
num_cat=0
split_feature=8 9 4
split_gain=0.0193343 0.0333695 0.00174628
threshold=2015.5000000000002 18.500000000000004 1051.0050000000003
decision_type=2 2 2
left_child=2 -2 -1
right_child=1 -3 -4
leaf_value=0.002155477567575872 0.0010708496626466513 -0.0035714712233584581 0.00083400854084175096
leaf_weight=20 30 32 20
leaf_count=20 30 32 20
internal_value=0 -0.00132519 0.00149474
internal_weight=0 62 40
internal_count=102 62 40
is_linear=0
shrinkage=0.1


Tree=29
num_leaves=4
num_cat=0
split_feature=5 2 1
split_gain=0.0187446 0.0266301 0.034626
threshold=1047.2600000000002 207.715 33.185000000000009
decision_type=2 2 2
left_child=-1 2 -2
right_child=1 -3 -4
leaf_value=-0.0022975145683934292 -0.0035848812962120235 0.0034847280354765447 0.0017596076320235928
leaf_weight=30 22 23 27
leaf_count=30 22 23 27
internal_value=0 0.000677649 -0.000639959
internal_weight=0 72 49
internal_count=102 72 49
is_linear=0
shrinkage=0.1


Tree=30
num_leaves=4
num_cat=0
split_feature=2 2 4
split_gain=0.0229705 0.0479431 0.0185293
threshold=134.10000000000005 175.53000000000003 1329.7100000000003
decision_type=2 2 2
left_child=-1 -2 -3
right_child=1 2 -4
leaf_value=0.0023685801421003097 -0.0051383213885128499 -0.0015859449322780839 0.0021351593357394451
leaf_weight=29 20 23 32
leaf_count=29 20 23 32
internal_value=0 -0.000945574 0.000579061
internal_weight=0 75 55
internal_count=104 75 55
is_linear=0
shrinkage=0.1


Tree=31
num_leaves=4
num_cat=0
split_feature=9 8 1
split_gain=0.022118 0.0299112 0.0283871
threshold=11.500000000000002 2015.5000000000002 34.705000000000005
decision_type=2 2 2
left_child=-1 -2 -3
right_child=1 2 -4
leaf_value=-0.0024219040740198188 0.0029570500185299251 -0.0036801472492516045 0.0016478069941513241
leaf_weight=28 36 20 20
leaf_count=28 36 20 20
internal_value=0 0.000865882 -0.00101617
internal_weight=0 76 40
internal_count=104 76 40
is_linear=0
shrinkage=0.1


Tree=32
num_leaves=4
num_cat=0
split_feature=9 8 1
split_gain=0.0179156 0.0242281 0.0229935
threshold=11.500000000000002 2015.5000000000002 34.705000000000005
decision_type=2 2 2
left_child=-1 -2 -3
right_child=1 2 -4
leaf_value=-0.002179713564692065 0.0026613450014135905 -0.003312132451683283 0.0014830262074247004
leaf_weight=28 36 20 20
leaf_count=28 36 20 20
internal_value=0 0.000779293 -0.000914553
internal_weight=0 76 40
internal_count=104 76 40
is_linear=0
shrinkage=0.1


Tree=33
num_leaves=3
num_cat=0
split_feature=9 8
split_gain=0.0147354 0.0216899
threshold=15.500000000000002 2015.5000000000002
decision_type=2 2
left_child=-1 -2
right_child=1 -3
leaf_value=-0.0015843410743400456 0.0027561930095544086 -0.0008711275370681988
leaf_weight=38 32 34
leaf_count=38 32 34
internal_value=0 0.000887573
internal_weight=0 66
internal_count=104 66
is_linear=0
shrinkage=0.1


Tree=34
num_leaves=4
num_cat=0
split_feature=9 8 1
split_gain=0.0122664 0.0158591 0.0186864
threshold=11.500000000000002 2015.5000000000002 34.705000000000005
decision_type=2 2 2
left_child=-1 -2 -3
right_child=1 2 -4
leaf_value=-0.0018033081316389144 0.0021678193368845516 -0.0028866743762046101 0.0014361006580293179
leaf_weight=28 36 20 20
leaf_count=28 36 20 20
internal_value=0 0.000645132 -0.000725287
internal_weight=0 76 40
internal_count=104 76 40
is_linear=0
shrinkage=0.1


Tree=35
num_leaves=4
num_cat=0
split_feature=4 0 1
split_gain=0.0285722 0.0359253 0.0156088
threshold=1025.1100000000001 2149.5950000000007 34.705000000000005
decision_type=2 2 2
left_child=-1 2 -2
right_child=1 -3 -4
leaf_value=-0.0021746327997081809 0.0014385175658389927 -0.0018580786529041474 0.004913891946004393
leaf_weight=27 28 21 24
leaf_count=27 28 21 24
internal_value=0 0.00163277 0.00304254
internal_weight=0 73 52
internal_count=100 73 52
is_linear=0
shrinkage=0.1


Tree=36
num_leaves=4
num_cat=0
split_feature=4 0 1
split_gain=0.0231435 0.0290995 0.0126431
threshold=1025.1100000000001 2149.5950000000007 34.705000000000005
decision_type=2 2 2
left_child=-1 2 -2
right_child=1 -3 -4
leaf_value=-0.00195716946316814 0.0012946657021529974 -0.0016722706723071282 0.0044225028182457516
leaf_weight=27 28 21 24
leaf_count=27 28 21 24
internal_value=0 0.00146949 0.00273828
internal_weight=0 73 52
internal_count=100 73 52
is_linear=0
shrinkage=0.1


Tree=37
num_leaves=4
num_cat=0
split_feature=4 0 1
split_gain=0.0187462 0.0235706 0.0102409
threshold=1025.1100000000001 2149.5950000000007 34.705000000000005
decision_type=2 2 2
left_child=-1 2 -2
right_child=1 -3 -4
leaf_value=-0.001761452451831213 0.0011651991866528989 -0.0015050436946607772 0.0039802525580550233
leaf_weight=27 28 21 24
leaf_count=27 28 21 24
internal_value=0 0.00132254 0.00246445
internal_weight=0 73 52
internal_count=100 73 52
is_linear=0
shrinkage=0.1


Tree=38
num_leaves=4
num_cat=0
split_feature=4 0 0
split_gain=0.0151845 0.0190922 0.00831279
threshold=1025.1100000000001 2149.5950000000007 1783.3400000000001
decision_type=2 2 2
left_child=-1 2 -2
right_child=1 -3 -4
leaf_value=-0.0015853072499373445 0.0012184425519080834 -0.0013545393234207519 0.0038173156976699834
leaf_weight=27 32 21 20
leaf_count=27 32 21 20
internal_value=0 0.00119029 0.00221801
internal_weight=0 73 52
internal_count=100 73 52
is_linear=0
shrinkage=0.1


Tree=39
num_leaves=4
num_cat=0
split_feature=4 0 1
split_gain=0.0122994 0.0154647 0.00793449
threshold=1025.1100000000001 2149.5950000000007 34.705000000000005
decision_type=2 2 2
left_child=-1 2 -2
right_child=1 -3 -4
leaf_value=-0.0014267765537456232 0.00085258144619209427 -0.0012190853578171561 0.0033304394416821502
leaf_weight=27 28 21 24
leaf_count=27 28 21 24
internal_value=0 0.00107126 0.00199621
internal_weight=0 73 52
internal_count=100 73 52
is_linear=0
shrinkage=0.1


Tree=40
num_leaves=4
num_cat=0
split_feature=8 9 1
split_gain=0.0209848 0.0421062 0.015472
threshold=2015.5000000000002 18.500000000000004 26.880000000000006
decision_type=2 2 2
left_child=2 -2 -1
right_child=1 -3 -4
leaf_value=0.0031684582343413717 0.0010481961769983172 -0.0041665499855298551 -0.00071787747088819748
leaf_weight=21 30 32 20
leaf_count=21 30 32 20
internal_value=0 -0.00164329 0.00127268
internal_weight=0 62 41
internal_count=103 62 41
is_linear=0
shrinkage=0.1


Tree=41
num_leaves=4
num_cat=0
split_feature=1 4 2
split_gain=0.0191303 0.0154668 0.0139397
threshold=17.375000000000004 1429.2800000000002 183.05500000000004
decision_type=2 2 2
left_child=-1 2 -2
right_child=1 -3 -4
leaf_value=-0.0029068797438715896 0.0034633658959397247 -0.001136545220537013 -0.00022550643421709538
leaf_weight=24 21 38 20
leaf_count=24 21 38 20
internal_value=0 0.000316859 0.00166392
internal_weight=0 79 41
internal_count=103 79 41
is_linear=0
shrinkage=0.1


Tree=42
num_leaves=4
num_cat=0
split_feature=1 4 2
split_gain=0.0154955 0.0125281 0.0112911
threshold=17.375000000000004 1429.2800000000002 183.05500000000004
decision_type=2 2 2
left_child=-1 2 -2
right_child=1 -3 -4
leaf_value=-0.0026161918804670377 0.0031170293688774111 -0.0010228906745875352 -0.00020295578520745038
leaf_weight=24 21 38 20
leaf_count=24 21 38 20
internal_value=0 0.000285173 0.00149752
internal_weight=0 79 41
internal_count=103 79 41
is_linear=0
shrinkage=0.1


Tree=43
num_leaves=4
num_cat=0
split_feature=8 9 1
split_gain=0.0130078 0.0346233 0.0152403
threshold=2015.5000000000002 18.500000000000004 26.880000000000006
decision_type=2 2 2
left_child=2 -2 -1
right_child=1 -3 -4
leaf_value=0.0029116731491826832 0.0011749914141061407 -0.0035537407675292343 -0.00094545630970969789
leaf_weight=21 30 32 20
leaf_count=21 30 32 20
internal_value=0 -0.00126564 0.00103015
internal_weight=0 62 41
internal_count=103 62 41
is_linear=0
shrinkage=0.1


Tree=44
num_leaves=4
num_cat=0
split_feature=1 8 9
split_gain=0.0137571 0.0280367 0.0159521
threshold=30.185000000000002 2015.5000000000002 15.500000000000002
decision_type=2 2 2
left_child=1 -1 -2
right_child=2 -3 -4
leaf_value=0.00081385286711156365 -0.0012885953490199015 -0.0039711887598969046 0.0022093983279773965
leaf_weight=25 22 24 32
leaf_count=25 22 24 32
internal_value=0 -0.00152984 0.00078429
internal_weight=0 49 54
internal_count=103 49 54
is_linear=0
shrinkage=0.1


Tree=45
num_leaves=4
num_cat=0
split_feature=2 9 8
split_gain=0.0349845 0.0220891 0.0330783
threshold=245.27500000000001 37.500000000000007 2015.5000000000002
decision_type=2 2 2
left_child=1 2 -1
right_child=-2 -3 -4
leaf_value=0.00079510159557685258 0.0038668620380728196 0.0022323316983169036 -0.0041582948796880931
leaf_weight=28 24 21 26
leaf_count=28 24 21 26
internal_value=0 -0.000519651 -0.00158987
internal_weight=0 75 54
internal_count=99 75 54
is_linear=0
shrinkage=0.1


Tree=46
num_leaves=4
num_cat=0
split_feature=2 9 8
split_gain=0.0283375 0.0178922 0.0267935
threshold=245.27500000000001 37.500000000000007 2015.5000000000002
decision_type=2 2 2
left_child=1 2 -1
right_child=-2 -3 -4
leaf_value=0.00071559142753747961 0.0034801757487002761 0.0020090985910168717 -0.0037424652154396214
leaf_weight=28 24 21 26
leaf_count=28 24 21 26
internal_value=0 -0.000467686 -0.00143088
internal_weight=0 75 54
internal_count=99 75 54
is_linear=0
shrinkage=0.1


Tree=47
num_leaves=4
num_cat=0
split_feature=2 9 8
split_gain=0.0229534 0.0144927 0.0217027
threshold=245.27500000000001 37.500000000000007 2015.5000000000002
decision_type=2 2 2
left_child=1 2 -1
right_child=-2 -3 -4
leaf_value=0.00064403225135590354 0.0031321581879941128 0.0018081887270368282 -0.0033682188816153663
leaf_weight=28 24 21 26
leaf_count=28 24 21 26
internal_value=0 -0.000420918 -0.00128779
internal_weight=0 75 54
internal_count=99 75 54
is_linear=0
shrinkage=0.1


Tree=48
num_leaves=3
num_cat=0
split_feature=1 1
split_gain=0.0203226 0.0170153
threshold=23.635000000000002 50.210000000000001
decision_type=2 2
left_child=-1 -2
right_child=1 -3
leaf_value=0.0022917475965287949 -0.0027128218738362193 0.00064632410036497999
leaf_weight=36 25 38
leaf_count=36 25 38
internal_value=0 -0.00068667
internal_weight=0 63
internal_count=99 63
is_linear=0
shrinkage=0.1


Tree=49
num_leaves=4
num_cat=0
split_feature=2 9 8
split_gain=0.0189822 0.012526 0.0116417
threshold=245.27500000000001 23.500000000000004 2015.5000000000002
decision_type=2 2 2
left_child=1 -1 -3
right_child=-2 2 -4
leaf_value=-0.0018845028808396874 0.002804578141270516 0.0023838586595264222 -0.00094590001695212867
leaf_weight=33 24 21 21
leaf_count=33 24 21 21
internal_value=0 -0.000426553 0.000718979
internal_weight=0 75 42
internal_count=99 75 42
is_linear=0
shrinkage=0.1


Tree=50
num_leaves=4
num_cat=0
split_feature=9 1 2
split_gain=0.0115008 0.0230784 0.00719718
threshold=19.500000000000004 34.705000000000005 183.05500000000004
decision_type=2 2 2
left_child=1 -1 -2
right_child=2 -3 -4
leaf_value=0.00070082969878884887 -0.000536794897072531 -0.0036999104249004558 0.00189405187875742
leaf_weight=22 29 26 21
leaf_count=22 29 26 21
internal_value=0 -0.0016829 0.000484161
internal_weight=0 48 50
internal_count=98 48 50
is_linear=0
shrinkage=0.1


Tree=51
num_leaves=4
num_cat=0
split_feature=4 0 2
split_gain=0.0101863 0.0200237 0.0173154
threshold=1025.1100000000001 1627.4850000000004 193.75500000000002
decision_type=2 2 2
left_child=-1 -2 -3
right_child=1 2 -4
leaf_value=-0.0023097513088335595 0.0026743477121705102 -0.0028163009860481206 0.00079934489600688079
leaf_weight=24 21 26 27
leaf_count=24 21 26 27
internal_value=0 6.10782e-05 -0.000974368
internal_weight=0 74 53
internal_count=98 74 53
is_linear=0
shrinkage=0.1


Tree=52
num_leaves=4
num_cat=0
split_feature=9 1 1
split_gain=0.0101666 0.00901255 0.00427639
threshold=29.500000000000004 23.635000000000002 50.210000000000001
decision_type=2 2 2
left_child=1 -1 -3
right_child=-2 2 -4
leaf_value=0.00041469816642347723 0.0010658674643491395 -0.0030260861673880191 -0.0010523387129701999
leaf_weight=24 30 21 23
leaf_count=24 30 21 23
internal_value=0 -0.0011441 -0.00199435
internal_weight=0 68 44
internal_count=98 68 44
is_linear=0
shrinkage=0.1


Tree=53
num_leaves=4
num_cat=0
split_feature=2 2 2
split_gain=0.00862413 0.0206751 0.0134891
threshold=134.10000000000005 175.53000000000003 225.51000000000002
decision_type=2 2 2
left_child=-1 -2 -3
right_child=1 2 -4
leaf_value=0.0012264101572024325 -0.0036105004804474969 0.00178544799098745 -0.0014103597179720446
leaf_weight=24 21 25 28
leaf_count=24 21 25 28
internal_value=0 -0.000955059 9.70967e-05
internal_weight=0 74 53
internal_count=98 74 53
is_linear=0
shrinkage=0.1


Tree=54
num_leaves=4
num_cat=0
split_feature=9 1 1
split_gain=0.00834779 0.00764182 0.00361638
threshold=29.500000000000004 23.635000000000002 52.095000000000006
decision_type=2 2 2
left_child=1 -1 -3
right_child=-2 2 -4
leaf_value=0.00044360725540855129 0.0010107855157305797 -0.002602295719164734 -0.00078157628653571006
leaf_weight=24 30 24 20
leaf_count=24 30 24 20
internal_value=0 -0.000991765 -0.0017747
internal_weight=0 68 44
internal_count=98 68 44
is_linear=0
shrinkage=0.1


Tree=55
num_leaves=4
num_cat=0
split_feature=2 8 1
split_gain=0.0120432 0.0282782 0.0184312
threshold=107.34000000000002 2015.5000000000002 34.705000000000005
decision_type=2 2 2
left_child=-1 -2 -3
right_child=1 2 -4
leaf_value=-0.0022603130561765282 0.003341720560759617 0.0011778651982313022 -0.0025577821502728122
leaf_weight=20 24 25 28
leaf_count=20 24 25 28
internal_value=0 0.000493896 -0.000795684
internal_weight=0 77 53
internal_count=97 77 53
is_linear=0
shrinkage=0.1


Tree=56
num_leaves=3
num_cat=0
split_feature=9 8
split_gain=0.0102875 0.0143567
threshold=13.500000000000002 2015.5000000000002
decision_type=2 2
left_child=-1 -2
right_child=1 -3
leaf_value=-0.0016056082180390754 0.0021999981044040573 -0.00073584190653895761
leaf_weight=30 31 36
leaf_count=30 31 36
internal_value=0 0.000622532
internal_weight=0 67
internal_count=97 67
is_linear=0
shrinkage=0.1


Tree=57
num_leaves=4
num_cat=0
split_feature=2 8 9
split_gain=0.0107942 0.0201675 0.0161566
threshold=107.34000000000002 2015.5000000000002 18.500000000000004
decision_type=2 2 2
left_child=-1 -2 -3
right_child=1 2 -4
leaf_value=-0.002129782922565937 0.0028826888689460857 0.0010384379650304255 -0.0024591155140660705
leaf_weight=20 24 28 25
leaf_count=20 24 28 25
internal_value=0 0.0004777 -0.000611351
internal_weight=0 77 53
internal_count=97 77 53
is_linear=0
shrinkage=0.1


Tree=58
num_leaves=3
num_cat=0
split_feature=9 8
split_gain=0.00950119 0.00965468
threshold=13.500000000000002 2015.5000000000002
decision_type=2 2
left_child=-1 -2
right_child=1 -3
leaf_value=-0.0015329725376795977 0.0019019299066595494 -0.00050561464061805355
leaf_weight=30 31 36
leaf_count=30 31 36
internal_value=0 0.000608324
internal_weight=0 67
internal_count=97 67
is_linear=0
shrinkage=0.1


Tree=59
num_leaves=4
num_cat=0
split_feature=2 8 1
split_gain=0.00956569 0.0144046 0.014963
threshold=107.34000000000002 2015.5000000000002 34.705000000000005
decision_type=2 2 2
left_child=-1 -2 -3
right_child=1 2 -4
leaf_value=-0.0019970496313180775 0.0024900994806860885 0.0013153728363104165 -0.0020505016045977496
leaf_weight=20 24 25 28
leaf_count=20 24 25 28
internal_value=0 0.000457567 -0.000462825
internal_weight=0 77 53
internal_count=97 77 53
is_linear=0
shrinkage=0.1


Tree=60
num_leaves=4
num_cat=0
split_feature=2 4 4
split_gain=0.0300783 0.0292961 0.0170025
threshold=175.53000000000003 1279.7250000000001 1105.9450000000004
decision_type=2 2 2
left_child=2 -2 -1
right_child=1 -3 -4
leaf_value=-0.00037594700143450785 -0.0019916713517159224 0.0027586912037411426 -0.0043539858465506277
leaf_weight=21 20 37 22
leaf_count=21 20 37 22
internal_value=0 0.0010919 -0.00241122
internal_weight=0 57 43
internal_count=100 57 43
is_linear=0
shrinkage=0.1


Tree=61
num_leaves=4
num_cat=0
split_feature=2 4 4
split_gain=0.0243634 0.0237299 0.013772
threshold=175.53000000000003 1279.7250000000001 1105.9450000000004
decision_type=2 2 2
left_child=2 -2 -1
right_child=1 -3 -4
leaf_value=-0.00033835228532552719 -0.0017925041774287821 0.0024828221098318493 -0.003918587196279656
leaf_weight=21 20 37 22
leaf_count=21 20 37 22
internal_value=0 0.000982708 -0.0021701
internal_weight=0 57 43
internal_count=100 57 43
is_linear=0
shrinkage=0.1


Tree=62
num_leaves=4
num_cat=0
split_feature=2 4 4
split_gain=0.0197344 0.0192212 0.0111553
threshold=175.53000000000003 1279.7250000000001 1105.9450000000004
decision_type=2 2 2
left_child=2 -2 -1
right_child=1 -3 -4
leaf_value=-0.00030451702574888867 -0.0016132538276724517 0.0022345398859485886 -0.0035267284858326261
leaf_weight=21 20 37 22
leaf_count=21 20 37 22
internal_value=0 0.000884437 -0.00195309
internal_weight=0 57 43
internal_count=100 57 43
is_linear=0
shrinkage=0.1


Tree=63
num_leaves=4
num_cat=0
split_feature=2 4 2
split_gain=0.0159848 0.0155692 0.0104515
threshold=175.53000000000003 1279.7250000000001 125.18000000000002
decision_type=2 2 2
left_child=2 -2 -1
right_child=1 -3 -4
leaf_value=-0.00030397466262397564 -0.0014519283059053123 0.0020110858384066741 -0.0034296590718440713
leaf_weight=23 20 37 20
leaf_count=23 20 37 20
internal_value=0 0.000795993 -0.00175778
internal_weight=0 57 43
internal_count=100 57 43
is_linear=0
shrinkage=0.1


Tree=64
num_leaves=4
num_cat=0
split_feature=2 4 4
split_gain=0.0129477 0.012611 0.00907801
threshold=175.53000000000003 1279.7250000000001 1105.9450000000004
decision_type=2 2 2
left_child=2 -2 -1
right_child=1 -3 -4
leaf_value=-9.4825756691751021e-05 -0.0013067355623934418 0.0018099773529782497 -0.0030015815943691205
leaf_weight=21 20 37 22
leaf_count=21 20 37 22
internal_value=0 0.000716394 -0.001582
internal_weight=0 57 43
internal_count=100 57 43
is_linear=0
shrinkage=0.1


Tree=65
num_leaves=4
num_cat=0
split_feature=9 5 4
split_gain=0.0204068 0.0227444 0.0183118
threshold=15.500000000000002 1047.2600000000002 1611.5700000000004
decision_type=2 2 2
left_child=-1 -2 -3
right_child=1 2 -4
leaf_value=-0.0017818690937608209 -0.001527969385497272 0.0046660814988648608 0.00053770768413828184
leaf_weight=34 20 21 22
leaf_count=34 20 21 22
internal_value=0 0.00125806 0.00255389
internal_weight=0 63 43
internal_count=97 63 43
is_linear=0
shrinkage=0.1


Tree=66
num_leaves=4
num_cat=0
split_feature=9 5 2
split_gain=0.0165295 0.0184229 0.0170767
threshold=15.500000000000002 1047.2600000000002 187.01500000000001
decision_type=2 2 2
left_child=-1 -2 -3
right_child=1 2 -4
leaf_value=-0.0016036822406878108 -0.0013751725014299156 0.0043382155553748211 0.00035150120542808014
leaf_weight=34 20 21 22
leaf_count=34 20 21 22
internal_value=0 0.00113226 0.0022985
internal_weight=0 63 43
internal_count=97 63 43
is_linear=0
shrinkage=0.1


Tree=67
num_leaves=4
num_cat=0
split_feature=9 5 4
split_gain=0.0133889 0.0149226 0.0140307
threshold=15.500000000000002 1047.2600000000002 1611.5700000000004
decision_type=2 2 2
left_child=-1 -2 -3
right_child=1 2 -4
leaf_value=-0.0014433140233022107 -0.0012376553285866976 0.0039175267181625331 0.00030381544387306681
leaf_weight=34 20 21 22
leaf_count=34 20 21 22
internal_value=0 0.00101903 0.00206865
internal_weight=0 63 43
internal_count=97 63 43
is_linear=0
shrinkage=0.1


Tree=68
num_leaves=3
num_cat=0
split_feature=9 1
split_gain=0.010845 0.0136446
threshold=15.500000000000002 34.705000000000005
decision_type=2 2
left_child=-1 -2
right_child=1 -3
leaf_value=-0.0012989826699006646 -0.00035737705719738087 0.0026164659229969537
leaf_weight=34 36 27
leaf_count=34 36 27
internal_value=0 0.000917127
internal_weight=0 63
internal_count=97 63
is_linear=0
shrinkage=0.1


Tree=69
num_leaves=4
num_cat=0
split_feature=9 5 2
split_gain=0.00878446 0.0112918 0.0132129
threshold=15.500000000000002 1047.2600000000002 193.75500000000002
decision_type=2 2 2
left_child=-1 -2 -3
right_child=1 2 -4
leaf_value=-0.001169084360384766 -0.001137628760188818 0.0033730753085009107 -0.00014135260833427309
leaf_weight=34 20 23 20
leaf_count=34 20 23 20
internal_value=0 0.000825414 0.00173846
internal_weight=0 63 43
internal_count=97 63 43
is_linear=0
shrinkage=0.1


Tree=70
num_leaves=4
num_cat=0
split_feature=0 8 9
split_gain=0.00768436 0.0164313 0.0103927
threshold=1162.4650000000004 2015.5000000000002 23.500000000000004
decision_type=2 2 2
left_child=-1 -2 -3
right_child=1 2 -4
leaf_value=0.0019321108857790631 -0.0021394755410287401 0.001894910292535582 -0.00085740294320124167
leaf_weight=21 29 34 23
leaf_count=21 29 34 23
internal_value=0 -0.000201606 0.000784328
internal_weight=0 86 57
internal_count=107 86 57
is_linear=0
shrinkage=0.1


Tree=71
num_leaves=5
num_cat=0
split_feature=0 4 1 1
split_gain=0.00622433 0.0141286 0.00400666 0.00722785
threshold=1162.4650000000004 1164.4900000000002 57.540000000000006 25.735000000000003
decision_type=2 2 2 2
left_child=-1 -2 3 -3
right_child=1 2 -4 -5
leaf_value=0.0017388997510785148 -0.0025098406383767726 0.001276245527842548 0.0015219234582036735 -0.0013800228053393463
leaf_weight=21 20 20 25 21
leaf_count=21 20 20 25 21
internal_value=0 -0.000181445 0.000524129 -8.42822e-05
internal_weight=0 86 66 41
internal_count=107 86 66 41
is_linear=0
shrinkage=0.1


Tree=72
num_leaves=4
num_cat=0
split_feature=0 8 1
split_gain=0.00504171 0.0123282 0.0105688
threshold=1162.4650000000004 2015.5000000000002 42.445000000000007
decision_type=2 2 2
left_child=-1 -2 -3
right_child=1 2 -4
leaf_value=0.0015650097901622455 -0.0018418694557300931 0.0020764931703784635 -0.00064729167437502027
leaf_weight=21 29 28 29
leaf_count=21 29 28 29
internal_value=0 -0.000163301 0.000690708
internal_weight=0 86 57
internal_count=107 86 57
is_linear=0
shrinkage=0.1


Tree=73
num_leaves=4
num_cat=0
split_feature=9 2 9
split_gain=0.0049109 0.00848956 0.0121006
threshold=37.500000000000007 140.82000000000002 18.500000000000004
decision_type=2 2 2
left_child=1 -1 -3
right_child=-2 2 -4
leaf_value=0.0015049633303923268 0.0013540722322292053 0.00032834816956892613 -0.002570476432326056
leaf_weight=21 26 36 24
leaf_count=21 26 36 24
internal_value=0 -0.000225514 -0.000831182
internal_weight=0 81 60
internal_count=107 81 60
is_linear=0
shrinkage=0.1


Tree=74
num_leaves=4
num_cat=0
split_feature=9 1 9
split_gain=0.00397783 0.00704802 0.01019
threshold=37.500000000000007 34.705000000000005 18.500000000000004
decision_type=2 2 2
left_child=1 2 -1
right_child=-2 -3 -4
leaf_value=0.0020945312252835086 0.0012186648933073651 -0.0012996953295762925 -0.00085102408096039055
leaf_weight=23 26 34 24
leaf_count=23 26 34 24
internal_value=0 -0.000202963 0.000590418
internal_weight=0 81 47
internal_count=107 81 47
is_linear=0
shrinkage=0.1


Tree=75
num_leaves=4
num_cat=0
split_feature=2 1 9
split_gain=0.0102701 0.00877438 4.20897e-05
threshold=165.26500000000001 34.705000000000005 27.500000000000004
decision_type=2 2 2
left_child=2 -2 -1
right_child=1 -3 -4
leaf_value=-0.0016631665262684691 0.0017285298487210337 -0.0006178489817744669 -0.0014580087549984457
leaf_weight=20 30 34 20
leaf_count=20 30 34 20
internal_value=0 0.000482016 -0.00156059
internal_weight=0 64 40
internal_count=104 64 40
is_linear=0
shrinkage=0.1


Tree=76
num_leaves=4
num_cat=0
split_feature=9 5 1
split_gain=0.0086159 0.00965233 0.0147434
threshold=10.500000000000002 1047.2600000000002 34.705000000000005
decision_type=2 2 2
left_child=-1 -2 -3
right_child=1 2 -4
leaf_value=0.0012263111853306847 -0.002435330867767334 0.0019154213548807258 -0.0015175772766614784
leaf_weight=28 25 22 29
leaf_count=28 25 22 29
internal_value=0 -0.000825707 -3.66759e-05
internal_weight=0 76 51
internal_count=104 76 51
is_linear=0
shrinkage=0.1


Tree=77
num_leaves=4
num_cat=0
split_feature=2 1 9
split_gain=0.0080374 0.00636491 0.000154352
threshold=165.26500000000001 34.705000000000005 27.500000000000004
decision_type=2 2 2
left_child=2 -2 -1
right_child=1 -3 -4
leaf_value=-0.0015543452788551804 0.0015107365097113265 -0.00048768067294183907 -0.001161468643695116
leaf_weight=20 30 34 20
leaf_count=20 30 34 20
internal_value=0 0.000449077 -0.00135791
internal_weight=0 64 40
internal_count=104 64 40
is_linear=0
shrinkage=0.1


Tree=78
num_leaves=4
num_cat=0
split_feature=9 5 4
split_gain=0.00710679 0.00782685 0.0125757
threshold=10.500000000000002 1047.2600000000002 1611.5700000000004
decision_type=2 2 2
left_child=-1 -2 -3
right_child=1 2 -4
leaf_value=0.0011405828492050726 -0.0021725260987877845 0.0014679173947553393 -0.0016781138911028393
leaf_weight=28 25 27 24
leaf_count=28 25 27 24
internal_value=0 -0.00072308 -1.25679e-05
internal_weight=0 76 51
internal_count=104 76 51
is_linear=0
shrinkage=0.1


Tree=79
num_leaves=4
num_cat=0
split_feature=2 1 9
split_gain=0.00633115 0.00548441 0.000264505
threshold=165.26500000000001 34.705000000000005 27.500000000000004
decision_type=2 2 2
left_child=2 -2 -1
right_child=1 -3 -4
leaf_value=-0.0014432688488159328 0.0014031296510559818 -0.00045191637267742095 -0.00092896860092878347
leaf_weight=20 30 34 20
leaf_count=20 30 34 20
internal_value=0 0.000417636 -0.00118612
internal_weight=0 64 40
internal_count=104 64 40
is_linear=0
shrinkage=0.1


Tree=80
num_leaves=4
num_cat=0
split_feature=1 1 0
split_gain=0.00750813 0.0152347 0.00983177
threshold=17.835000000000004 30.185000000000002 1900.2650000000001
decision_type=2 2 2
left_child=-1 -2 -3
right_child=1 2 -4
leaf_value=0.0011733481926577433 -0.0028967519250252972 0.0013445771194153255 -0.0013513666577637197
leaf_weight=28 23 31 24
leaf_count=28 23 31 24
internal_value=0 -0.000735592 0.000168165
internal_weight=0 78 55
internal_count=106 78 55
is_linear=0
shrinkage=0.1


Tree=81
num_leaves=4
num_cat=0
split_feature=1 1 0
split_gain=0.00608158 0.0123401 0.00796374
threshold=17.835000000000004 30.185000000000002 1900.2650000000001
decision_type=2 2 2
left_child=-1 -2 -3
right_child=1 2 -4
leaf_value=0.0010560133960098028 -0.0026070766753274136 0.0012101194460786158 -0.0012162300117779523
leaf_weight=28 23 31 24
leaf_count=28 23 31 24
internal_value=0 -0.000662033 0.000151349
internal_weight=0 78 55
internal_count=106 78 55
is_linear=0
shrinkage=0.1


Tree=82
num_leaves=4
num_cat=0
split_feature=9 9 2
split_gain=0.0054835 0.0107461 0.0108137
threshold=12.500000000000002 37.500000000000007 190.92000000000004
decision_type=2 2 2
left_child=-1 2 -2
right_child=1 -3 -4
leaf_value=0.00085926461957997694 -0.0001118496510848079 0.00089554474947767129 -0.0032129705542254007
leaf_weight=34 23 27 22
leaf_count=34 23 27 22
internal_value=0 -0.000681641 -0.00162795
internal_weight=0 72 45
internal_count=106 72 45
is_linear=0
shrinkage=0.1


Tree=83
num_leaves=4
num_cat=0
split_feature=1 2 1
split_gain=0.00552419 0.00782615 0.00791006
threshold=23.635000000000002 156.20500000000001 50.210000000000001
decision_type=2 2 2
left_child=-1 -2 -3
right_child=1 2 -4
leaf_value=0.00081718719589549149 -0.0022034243882998179 -0.0013749932920161104 0.0012576330145820977
leaf_weight=37 23 21 25
leaf_count=37 23 21 25
internal_value=0 -0.000697287 5.57819e-05
internal_weight=0 69 46
internal_count=106 69 46
is_linear=0
shrinkage=0.1


Tree=84
num_leaves=4
num_cat=0
split_feature=2 2 0
split_gain=0.00461797 0.00930693 0.00615593
threshold=107.34000000000002 187.01500000000001 1922.6050000000002
decision_type=2 2 2
left_child=-1 -2 -3
right_child=1 2 -4
leaf_value=-0.0014797057158180648 0.0013970787598130605 -0.0016514342563258935 0.00062906968174502264
leaf_weight=21 36 29 20
leaf_count=21 36 29 20
internal_value=0 0.00017629 -0.000720616
internal_weight=0 85 49
internal_count=106 85 49
is_linear=0
shrinkage=0.1


Tree=85
num_leaves=4
num_cat=0
split_feature=2 2 2
split_gain=0.0130822 0.0140986 0.0142189
threshold=245.27500000000001 190.92000000000004 156.20500000000001
decision_type=2 2 2
left_child=1 2 -1
right_child=-2 -3 -4
leaf_value=-0.00042429303523535154 0.0025830184604274109 -0.002305214067122766 0.0028032059102163962
leaf_weight=39 24 21 21
leaf_count=39 24 21 21
internal_value=0 -7.51802e-05 0.000705332
internal_weight=0 81 60
internal_count=105 81 60
is_linear=0
shrinkage=0.1


Tree=86
num_leaves=4
num_cat=0
split_feature=2 2 2
split_gain=0.0105966 0.0114199 0.0115173
threshold=245.27500000000001 190.92000000000004 156.20500000000001
decision_type=2 2 2
left_child=1 2 -1
right_child=-2 -3 -4
leaf_value=-0.00038186369750362178 0.0023247166260868353 -0.0020746927619689987 0.0025228853282030853
leaf_weight=39 24 21 21
leaf_count=39 24 21 21
internal_value=0 -6.76622e-05 0.000634798
internal_weight=0 81 60
internal_count=105 81 60
is_linear=0
shrinkage=0.1


Tree=87
num_leaves=5
num_cat=0
split_feature=8 4 9 5
split_gain=0.00955308 0.0154318 0.00939579 0.00515209
threshold=2016.5000000000002 1555.5650000000003 18.500000000000004 1047.2600000000002
decision_type=2 2 2 2
left_child=1 2 -1 -4
right_child=-2 -3 3 -5
leaf_value=0.0023968416562473232 0.002397649148479104 -0.0024605070753023033 -0.0011647258480281934 0.0010298319987487048
leaf_weight=22 20 20 23 20
leaf_count=22 20 20 23 20
internal_value=0 -3.14315e-05 0.000715976 -0.000144001
internal_weight=0 85 65 43
internal_count=105 85 65 43
is_linear=0
shrinkage=0.1


Tree=88
num_leaves=5
num_cat=0
split_feature=8 4 9 5
split_gain=0.007738 0.0124998 0.00761059 0.00417319
threshold=2016.5000000000002 1555.5650000000003 18.500000000000004 1047.2600000000002
decision_type=2 2 2 2
left_child=1 2 -1 -4
right_child=-2 -3 3 -5
leaf_value=0.0021571574690328402 0.0021578842424787581 -0.0022144563365145589 -0.0010482532741582912 0.0009268488583620638
leaf_weight=22 20 20 23 20
leaf_count=22 20 20 23 20
internal_value=0 -2.82884e-05 0.000644379 -0.000129601
internal_weight=0 85 65 43
internal_count=105 85 65 43
is_linear=0
shrinkage=0.1


Tree=89
num_leaves=4
num_cat=0
split_feature=1 0 9
split_gain=0.00754837 0.0130255 0.0077118
threshold=25.735000000000003 1399.0850000000003 29.500000000000004
decision_type=2 2 2
left_child=1 -1 -2
right_child=2 -3 -4
leaf_value=-0.00022301862870032589 0.00053477296416924616 0.0032324184465687723 -0.0017668611408832174
leaf_weight=24 37 20 24
leaf_count=24 37 20 24
internal_value=0 0.00134763 -0.000370788
internal_weight=0 44 61
internal_count=105 44 61
is_linear=0
shrinkage=0.1


Tree=90
num_leaves=4
num_cat=0
split_feature=2 1 2
split_gain=0.0205306 0.01548 0.0185338
threshold=148.84000000000003 61.770000000000003 213.53500000000003
decision_type=2 2 2
left_child=-1 2 -2
right_child=1 -3 -4
leaf_value=0.0014864543469978826 -0.0044002921078354126 0.00068780523513189778 -0.00046688100606527018
leaf_weight=34 25 22 23
leaf_count=34 25 22 23
internal_value=0 -0.00150877 -0.00251553
internal_weight=0 70 48
internal_count=104 70 48
is_linear=0
shrinkage=0.1


Tree=91
num_leaves=4
num_cat=0
split_feature=2 9 9
split_gain=0.0166298 0.0126742 0.0240385
threshold=148.84000000000003 31.500000000000004 16.500000000000004
decision_type=2 2 2
left_child=-1 2 -2
right_child=1 -3 -4
leaf_value=0.001337808941389085 -0.00039940534978964498 0.00069752333608145522 -0.0049058852740563458
leaf_weight=34 29 21 20
leaf_count=34 29 21 20
internal_value=0 -0.00135789 -0.00223878
internal_weight=0 70 49
internal_count=104 70 49
is_linear=0
shrinkage=0.1


Tree=92
num_leaves=4
num_cat=0
split_feature=2 1 2
split_gain=0.0134701 0.0119272 0.0153308
threshold=148.84000000000003 61.770000000000003 213.53500000000003
decision_type=2 2 2
left_child=-1 2 -2
right_child=1 -3 -4
leaf_value=0.0012040280326105217 -0.0038199921089690178 0.00070599898463115103 -0.00024258234669737841
leaf_weight=34 25 22 23
leaf_count=34 25 22 23
internal_value=0 -0.0012221 -0.00210582
internal_weight=0 70 48
internal_count=104 70 48
is_linear=0
shrinkage=0.1


Tree=93
num_leaves=4
num_cat=0
split_feature=2 9 9
split_gain=0.0109108 0.0107237 0.0187694
threshold=148.84000000000003 31.500000000000004 16.500000000000004
decision_type=2 2 2
left_child=-1 2 -2
right_child=1 -3 -4
leaf_value=0.0010836252524955747 -0.00028483595092909344 0.00079076267623653029 -0.0042669136950280523
leaf_weight=34 29 21 20
leaf_count=34 29 21 20
internal_value=0 -0.00109989 -0.00191017
internal_weight=0 70 49
internal_count=104 70 49
is_linear=0
shrinkage=0.1


Tree=94
num_leaves=4
num_cat=0
split_feature=2 1 1
split_gain=0.00883776 0.00918463 0.0137201
threshold=148.84000000000003 61.770000000000003 25.735000000000003
decision_type=2 2 2
left_child=-1 2 -2
right_child=1 -3 -4
leaf_value=0.00097526270512710608 -0.0003365139013372495 0.00070206045215441418 -0.0037658094789367173
leaf_weight=34 28 22 20
leaf_count=34 28 22 20
internal_value=0 -0.000989904 -0.00176539
internal_weight=0 70 48
internal_count=104 70 48
is_linear=0
shrinkage=0.1


Tree=95
num_leaves=4
num_cat=0
split_feature=4 8 9
split_gain=0.0103822 0.00958041 0.0113732
threshold=1679.1350000000002 2015.5000000000002 29.500000000000004
decision_type=2 2 2
left_child=1 2 -1
right_child=-2 -3 -4
leaf_value=0.0021197127740985406 0.0020696200709789995 -0.0016654523508623242 -0.0011091367434710264
leaf_weight=24 25 30 20
leaf_count=24 25 30 20
internal_value=0 -0.000287476 0.000652054
internal_weight=0 74 44
internal_count=99 74 44
is_linear=0
shrinkage=0.1


Tree=96
num_leaves=3
num_cat=0
split_feature=4 0
split_gain=0.00855175 0.00801919
threshold=1491.4200000000003 1369.3400000000004
decision_type=2 2
left_child=1 -1
right_child=-2 -3
leaf_value=0.00043542943894863133 0.0014545353144823918 -0.0019303517355381149
leaf_weight=38 38 23
leaf_count=38 38 23
internal_value=0 -0.000456586
internal_weight=0 61
internal_count=99 61
is_linear=0
shrinkage=0.1


Tree=97
num_leaves=4
num_cat=0
split_feature=4 0 9
split_gain=0.00720696 0.00844473 0.00920322
threshold=1679.1350000000002 1470.0350000000001 31.500000000000004
decision_type=2 2 2
left_child=1 2 -1
right_child=-2 -3 -4
leaf_value=0.002097206317226995 0.0017172045488841833 -0.0014704886554682162 -0.00086672503501176827
leaf_weight=22 25 32 20
leaf_count=22 25 32 20
internal_value=0 -0.000246643 0.00068581
internal_weight=0 74 42
internal_count=99 74 42
is_linear=0
shrinkage=0.1


Tree=98
num_leaves=4
num_cat=0
split_feature=4 8 9
split_gain=0.00644236 0.00641827 0.00667665
threshold=1491.4200000000003 2015.5000000000002 29.500000000000004
decision_type=2 2 2
left_child=1 2 -1
right_child=-2 -3 -4
leaf_value=0.0016228457028046252 0.0012464140868886668 -0.0018280230357222969 -0.00096107497811317446
leaf_weight=20 38 21 20
leaf_count=20 38 21 20
internal_value=0 -0.000412345 0.000330885
internal_weight=0 61 40
internal_count=99 61 40
is_linear=0
shrinkage=0.1


Tree=99
num_leaves=4
num_cat=0
split_feature=2 1 1
split_gain=0.00603487 0.0156197 0.00441287
threshold=187.01500000000001 24.505000000000003 29.020000000000003
decision_type=2 2 2
left_child=1 -1 -2
right_child=2 -3 -4
leaf_value=-0.0010019332858855312 0.0005065210093744099 0.0024876641171305957 -0.0014532821231383695
leaf_weight=23 20 29 27
leaf_count=23 20 29 27
internal_value=0 0.000944188 -0.000619323
internal_weight=0 52 47
internal_count=99 52 47
is_linear=0
shrinkage=0.1


Tree=100
num_leaves=4
num_cat=0
split_feature=9 2 0
split_gain=0.0135571 0.0105135 0.0104984
threshold=37.500000000000007 165.26500000000001 1783.3400000000001
decision_type=2 2 2
left_child=1 -1 -3
right_child=-2 2 -4
leaf_value=-0.0022263003573503477 0.0021782916881853626 0.0016704774034830433 -0.0013911450161166225
leaf_weight=28 21 24 21
leaf_count=28 21 24 21
internal_value=0 -0.000704918 0.00024172
internal_weight=0 73 45
internal_count=94 73 45
is_linear=0
shrinkage=0.1


Tree=101
num_leaves=4
num_cat=0
split_feature=9 2 0
split_gain=0.0109812 0.00851589 0.00850367
threshold=37.500000000000007 165.26500000000001 1783.3400000000001
decision_type=2 2 2
left_child=1 -1 -3
right_child=-2 2 -4
leaf_value=-0.0020036702818418107 0.0019604625404878919 0.0015034296578960494 -0.0012520305246913009
leaf_weight=28 21 24 21
leaf_count=28 21 24 21
internal_value=0 -0.000634426 0.000217548
internal_weight=0 73 45
internal_count=94 73 45
is_linear=0
shrinkage=0.1


Tree=102
num_leaves=4
num_cat=0
split_feature=9 2 0
split_gain=0.00889481 0.00689787 0.00688797
threshold=37.500000000000007 165.26500000000001 1783.3400000000001
decision_type=2 2 2
left_child=1 -1 -3
right_child=-2 2 -4
leaf_value=-0.0018033032879299885 0.0017644162356321301 0.0013530866960839681 -0.0011268274692286338
leaf_weight=28 21 24 21
leaf_count=28 21 24 21
internal_value=0 -0.000570983 0.000195793
internal_weight=0 73 45
internal_count=94 73 45
is_linear=0
shrinkage=0.1


Tree=103
num_leaves=3
num_cat=0
split_feature=9 1
split_gain=0.0072048 0.00567514
threshold=37.500000000000007 25.735000000000003
decision_type=2 2
left_child=1 -1
right_child=-2 -3
leaf_value=0.00043043641044813048 0.0015879746437782332 -0.0013371396554598155
leaf_weight=34 21 39
leaf_count=34 21 39
internal_value=0 -0.000513885
internal_weight=0 73
internal_count=94 73
is_linear=0
shrinkage=0.1


Tree=104
num_leaves=4
num_cat=0
split_feature=2 2 1
split_gain=0.00676341 0.00832421 0.00245197
threshold=156.20500000000001 245.27500000000001 30.185000000000002
decision_type=2 2 2
left_child=-1 2 -2
right_child=1 -3 -4
leaf_value=-0.0011667098671964864 0.00064858313649892815 -0.0010671110218390823 0.0022144583379849793
leaf_weight=34 20 20 20
leaf_count=34 20 20 20
internal_value=0 0.000598643 0.00143152
internal_weight=0 60 40
internal_count=94 60 40
is_linear=0
shrinkage=0.1


Tree=105
num_leaves=3
num_cat=0
split_feature=4 4
split_gain=0.00781741 0.00771083
threshold=1688.8750000000002 1164.4900000000002
decision_type=2 2
left_child=1 -1
right_child=-2 -3
leaf_value=-0.0005545551862774624 -0.0016268033012950226 0.0015011453853190147
leaf_weight=36 23 37
leaf_count=36 23 37
internal_value=0 0.000487375
internal_weight=0 73
internal_count=96 73
is_linear=0
shrinkage=0.1


Tree=106
num_leaves=3
num_cat=0
split_feature=4 4
split_gain=0.0063321 0.00624577
threshold=1688.8750000000002 1164.4900000000002
decision_type=2 2
left_child=1 -1
right_child=-2 -3
leaf_value=-0.00049909970774832709 -0.0014641229745314416 0.0013510308949932822
leaf_weight=36 23 37
leaf_count=36 23 37
internal_value=0 0.000438638
internal_weight=0 73
internal_count=96 73
is_linear=0
shrinkage=0.1


Tree=107
num_leaves=4
num_cat=0
split_feature=9 4 4
split_gain=0.00591201 0.0129693 0.01523
threshold=12.500000000000002 1611.5700000000004 1164.4900000000002
decision_type=2 2 2
left_child=-1 2 -2
right_child=1 -3 -4
leaf_value=0.0013825628769826954 -0.001013925295599081 -0.0022480873202976701 0.0026269229232275394
leaf_weight=23 27 26 20
leaf_count=23 27 26 20
internal_value=0 -0.000455997 0.000535372
internal_weight=0 73 47
internal_count=96 73 47
is_linear=0
shrinkage=0.1


Tree=108
num_leaves=4
num_cat=0
split_feature=9 4 4
split_gain=0.00478873 0.0105052 0.0123363
threshold=12.500000000000002 1611.5700000000004 1164.4900000000002
decision_type=2 2 2
left_child=-1 2 -2
right_child=1 -3 -4
leaf_value=0.0012443065278879976 -0.00091253269670738121 -0.0020232784740913373 0.0023642305901739749
leaf_weight=23 27 26 20
leaf_count=23 27 26 20
internal_value=0 -0.000410397 0.000481835
internal_weight=0 73 47
internal_count=96 73 47
is_linear=0
shrinkage=0.1


Tree=109
num_leaves=4
num_cat=0
split_feature=9 8 4
split_gain=0.00387887 0.0087613 0.00161985
threshold=12.500000000000002 2015.5000000000002 1688.8750000000002
decision_type=2 2 2
left_child=-1 -2 -3
right_child=1 2 -4
leaf_value=0.0011198758755041206 0.00087069409346440807 -0.00072379395631807196 -0.0019812825392000375
leaf_weight=23 32 21 20
leaf_count=23 32 21 20
internal_value=0 -0.000369358 -0.0013372
internal_weight=0 73 41
internal_count=96 73 41
is_linear=0
shrinkage=0.1


Tree=110
num_leaves=4
num_cat=0
split_feature=4 2 0
split_gain=0.0140333 0.0273257 0.0121299
threshold=1679.1350000000002 148.84000000000003 1470.0350000000001
decision_type=2 2 2
left_child=1 -1 -3
right_child=-2 2 -4
leaf_value=0.0026453938689969835 0.0023198807038939916 -4.8987276386469603e-06 -0.0030946632381528617
leaf_weight=21 26 24 27
leaf_count=21 26 24 27
internal_value=0 -0.000390558 -0.00164066
internal_weight=0 72 51
internal_count=98 72 51
is_linear=0
shrinkage=0.1


Tree=111
num_leaves=4
num_cat=0
split_feature=4 2 1
split_gain=0.011367 0.0221338 0.0109962
threshold=1679.1350000000002 148.84000000000003 26.880000000000006
decision_type=2 2 2
left_child=1 -1 -3
right_child=-2 2 -4
leaf_value=0.0023808544501662254 0.0020878925722522235 2.0861350465565923e-05 -0.0029164484684140639
leaf_weight=21 26 25 26
leaf_count=21 26 25 26
internal_value=0 -0.000351503 -0.00147659
internal_weight=0 72 51
internal_count=98 72 51
is_linear=0
shrinkage=0.1


Tree=112
num_leaves=4
num_cat=0
split_feature=4 2 8
split_gain=0.00920723 0.0179284 0.00951192
threshold=1679.1350000000002 148.84000000000003 2015.5000000000002
decision_type=2 2 2
left_child=1 -1 -3
right_child=-2 2 -4
leaf_value=0.0021427690328675369 0.0018791033035645691 0.00011959099016773205 -0.0026165072676829168
leaf_weight=21 26 24 27
leaf_count=21 26 24 27
internal_value=0 -0.000316352 -0.00132893
internal_weight=0 72 51
internal_count=98 72 51
is_linear=0
shrinkage=0.1


Tree=113
num_leaves=4
num_cat=0
split_feature=1 2 2
split_gain=0.00776775 0.0165891 0.0151551
threshold=61.770000000000003 148.84000000000003 225.51000000000002
decision_type=2 2 2
left_child=1 -1 -3
right_child=-2 2 -4
leaf_value=0.003206762715271907 -0.0013238050548049312 -0.0015010718446732923 0.0019353727211377453
leaf_weight=20 24 33 21
leaf_count=20 24 33 21
internal_value=0 0.000746523 -0.000164677
internal_weight=0 74 54
internal_count=98 74 54
is_linear=0
shrinkage=0.1


Tree=114
num_leaves=3
num_cat=0
split_feature=4 0
split_gain=0.00793959 0.015988
threshold=1679.1350000000002 1491.2300000000002
decision_type=2 2
left_child=1 -1
right_child=-2 -3
leaf_value=0.001045407632437463 0.0017133938402716575 -0.0019452995313754815
leaf_weight=39 26 33
leaf_count=39 26 33
internal_value=0 -0.000325333
internal_weight=0 72
internal_count=98 72
is_linear=0
shrinkage=0.1


Tree=115
num_leaves=4
num_cat=0
split_feature=4 1 4
split_gain=0.0188966 0.00435087 0.000394967
threshold=1164.4900000000002 33.185000000000009 1679.1350000000002
decision_type=2 2 2
left_child=-1 -2 -3
right_child=1 2 -4
leaf_value=-0.0019477274951835476 0.0021975223390061573 0.00015719602641183883 0.00078566006763139743
leaf_weight=30 23 20 20
leaf_count=30 23 20 20
internal_value=0 0.00110159 0.000471428
internal_weight=0 63 40
internal_count=93 63 40
is_linear=0
shrinkage=0.1


Tree=116
num_leaves=4
num_cat=0
split_feature=4 1 1
split_gain=0.0153063 0.00352421 0.000380971
threshold=1164.4900000000002 33.185000000000009 76.535000000000011
decision_type=2 2 2
left_child=-1 -2 -3
right_child=1 2 -4
leaf_value=-0.0017529548619252941 0.0019777700907307799 0.00073289962543640294 0.00011567092631594278
leaf_weight=30 23 20 20
leaf_count=30 23 20 20
internal_value=0 0.000991431 0.000424285
internal_weight=0 63 40
internal_count=93 63 40
is_linear=0
shrinkage=0.1


Tree=117
num_leaves=4
num_cat=0
split_feature=4 1 4
split_gain=0.0123981 0.00285461 0.000326944
threshold=1164.4900000000002 33.185000000000009 1679.1350000000002
decision_type=2 2 2
left_child=-1 -2 -3
right_child=1 2 -4
leaf_value=-0.0015776593216772503 0.0017799931291412341 9.5961820334196092e-05 0.0006677517050411553
leaf_weight=30 23 20 20
leaf_count=30 23 20 20
internal_value=0 0.000892287 0.000381857
internal_weight=0 63 40
internal_count=93 63 40
is_linear=0
shrinkage=0.1


Tree=118
num_leaves=3
num_cat=0
split_feature=4 1
split_gain=0.0100424 0.00292416
threshold=1164.4900000000002 57.540000000000006
decision_type=2 2
left_child=-1 -2
right_child=1 -3
leaf_value=-0.0014198933308944108 0.00023195302299525893 0.0016157860243066144
leaf_weight=30 37 26
leaf_count=30 37 26
internal_value=0 0.000803059
internal_weight=0 63
internal_count=93 63
is_linear=0
shrinkage=0.1


Tree=119
num_leaves=4
num_cat=0
split_feature=4 1 1
split_gain=0.00813437 0.00265462 0.000433085
threshold=1164.4900000000002 33.185000000000009 76.535000000000011
decision_type=2 2 2
left_child=-1 -2 -3
right_child=1 2 -4
leaf_value=-0.0012779040068077545 0.0015787984264771576 0.00055957262666197496 -9.8519430612213919e-05
leaf_weight=30 23 20 20
leaf_count=30 23 20 20
internal_value=0 0.000722753 0.000230527
internal_weight=0 63 40
internal_count=93 63 40
is_linear=0
shrinkage=0.1


Tree=120
num_leaves=4
num_cat=0
split_feature=0 1 1
split_gain=0.0168072 0.00921811 0.00749347
threshold=1149.1050000000002 30.185000000000002 52.095000000000006
decision_type=2 2 2
left_child=-1 -2 -3
right_child=1 2 -4
leaf_value=0.0020664226752705873 -0.002490718602348352 0.0011805725691374392 -0.0013355133244125495
leaf_weight=20 32 20 29
leaf_count=20 32 20 29
internal_value=0 -0.00117063 -0.000308539
internal_weight=0 81 49
internal_count=101 81 49
is_linear=0
shrinkage=0.1


Tree=121
num_leaves=4
num_cat=0
split_feature=0 1 4
split_gain=0.0136138 0.00746667 0.00630328
threshold=1149.1050000000002 30.185000000000002 1611.5700000000004
decision_type=2 2 2
left_child=-1 -2 -3
right_child=1 2 -4
leaf_value=0.0018597803160082548 -0.0022416467745642876 -0.0012195782157881508 0.0010880588181316853
leaf_weight=20 32 29 20
leaf_count=20 32 29 20
internal_value=0 -0.00105357 -0.000277686
internal_weight=0 81 49
internal_count=101 81 49
is_linear=0
shrinkage=0.1


Tree=122
num_leaves=4
num_cat=0
split_feature=0 1 1
split_gain=0.0110272 0.006048 0.00619189
threshold=1149.1050000000002 30.185000000000002 52.095000000000006
decision_type=2 2 2
left_child=-1 -2 -3
right_child=1 2 -4
leaf_value=0.0016738024070218672 -0.0020174821227556096 0.0011037058499641717 -0.001183449904883987
leaf_weight=20 32 20 29
leaf_count=20 32 20 29
internal_value=0 -0.000948214 -0.000249917
internal_weight=0 81 49
internal_count=101 81 49
is_linear=0
shrinkage=0.1


Tree=123
num_leaves=4
num_cat=0
split_feature=0 8 2
split_gain=0.00893202 0.0057243 0.00505496
threshold=1149.1050000000002 2015.5000000000002 204.19000000000003
decision_type=2 2 2
left_child=-1 -2 -3
right_child=1 2 -4
leaf_value=0.0015064221550710501 -0.0020422604849079143 0.00074508819659688296 -0.0011912886968015561
leaf_weight=20 27 26 28
leaf_count=20 27 26 28
internal_value=0 -0.000853393 -0.000258959
internal_weight=0 81 54
internal_count=101 81 54
is_linear=0
shrinkage=0.1


Tree=124
num_leaves=4
num_cat=0
split_feature=0 2 2
split_gain=0.00723493 0.00515379 0.00586675
threshold=1149.1050000000002 156.20500000000001 256.46500000000009
decision_type=2 2 2
left_child=-1 -2 -3
right_child=1 2 -4
leaf_value=0.0013557798485271633 -0.001997339011237879 0.00058396272292798943 -0.0014839537340499784
leaf_weight=20 24 34 23
leaf_count=20 24 34 23
internal_value=0 -0.000768054 -0.00025046
internal_weight=0 81 57
internal_count=101 81 57
is_linear=0
shrinkage=0.1


Tree=125
num_leaves=4
num_cat=0
split_feature=1 2 1
split_gain=0.0129484 0.0104059 0.00797893
threshold=69.065000000000012 148.84000000000003 26.880000000000006
decision_type=2 2 2
left_child=1 -1 -3
right_child=-2 2 -4
leaf_value=0.001927585932067954 -0.0024554287176050075 0.00057979568140581245 -0.0018664664186265629
leaf_weight=26 22 30 24
leaf_count=26 22 30 24
internal_value=0 0.000283949 -0.000507432
internal_weight=0 80 54
internal_count=102 80 54
is_linear=0
shrinkage=0.1


Tree=126
num_leaves=4
num_cat=0
split_feature=1 2 9
split_gain=0.0104882 0.00842881 0.00678258
threshold=69.065000000000012 148.84000000000003 29.500000000000004
decision_type=2 2 2
left_child=1 -1 -3
right_child=-2 2 -4
leaf_value=0.0017348273594577153 -0.0022098858671432192 -0.001316248651367941 0.0010045630388776771
leaf_weight=26 22 34 20
leaf_count=26 22 34 20
internal_value=0 0.000255554 -0.000456689
internal_weight=0 80 54
internal_count=102 80 54
is_linear=0
shrinkage=0.1


Tree=127
num_leaves=4
num_cat=0
split_feature=1 2 1
split_gain=0.00849545 0.00682734 0.00668047
threshold=69.065000000000012 148.84000000000003 26.880000000000006
decision_type=2 2 2
left_child=1 -1 -3
right_child=-2 2 -4
leaf_value=0.0015613446636752297 -0.0019888972375404347 0.00058381656873583178 -0.001654565522282307
leaf_weight=26 22 30 24
leaf_count=26 22 30 24
internal_value=0 0.000229999 -0.00041102
internal_weight=0 80 54
internal_count=102 80 54
is_linear=0
shrinkage=0.1


Tree=128
num_leaves=4
num_cat=0
split_feature=1 1 1
split_gain=0.00698216 0.00516026 0.0109135
threshold=23.635000000000002 38.415000000000006 61.770000000000003
decision_type=2 2 2
left_child=-1 -2 -3
right_child=1 2 -4
leaf_value=0.00092098906058319177 -0.0021205901057415066 0.0014518437984709939 -0.001640448469668627
leaf_weight=35 21 21 25
leaf_count=35 21 21 25
internal_value=0 -0.000821715 -0.00022875
internal_weight=0 67 46
internal_count=102 67 46
is_linear=0
shrinkage=0.1


Tree=129
num_leaves=4
num_cat=0
split_feature=2 8 9
split_gain=0.00641685 0.0101678 0.0236766
threshold=107.34000000000002 2015.5000000000002 21.500000000000004
decision_type=2 2 2
left_child=-1 -2 -3
right_child=1 2 -4
leaf_value=-0.0017590911848293174 0.0018320439414730154 0.0011262490742162546 -0.0031089403691029558
leaf_weight=21 26 33 22
leaf_count=21 26 33 22
internal_value=0 0.000202502 -0.000567827
internal_weight=0 81 55
internal_count=102 81 55
is_linear=0
shrinkage=0.1


Tree=130
num_leaves=4
num_cat=0
split_feature=1 0 0
split_gain=0.00752997 0.0118525 0.00801392
threshold=17.375000000000004 1369.3400000000004 1783.3400000000001
decision_type=2 2 2
left_child=-1 -2 -3
right_child=1 2 -4
leaf_value=-0.001496639595522235 0.0025436411833479294 -0.0018358475621789697 0.00076614778633390013
leaf_weight=24 21 20 29
leaf_count=24 21 20 29
internal_value=0 0.000555969 -0.000295891
internal_weight=0 70 49
internal_count=94 70 49
is_linear=0
shrinkage=0.1


Tree=131
num_leaves=4
num_cat=0
split_feature=1 0 0
split_gain=0.00609928 0.00960055 0.00649127
threshold=17.375000000000004 1369.3400000000004 1783.3400000000001
decision_type=2 2 2
left_child=-1 -2 -3
right_child=1 2 -4
leaf_value=-0.0013469756212240707 0.0022892769958291737 -0.0016522627812810241 0.00068953302969899162
leaf_weight=24 21 20 29
leaf_count=24 21 20 29
internal_value=0 0.000500372 -0.000266302
internal_weight=0 70 49
internal_count=94 70 49
is_linear=0
shrinkage=0.1


Tree=132
num_leaves=4
num_cat=0
split_feature=2 2 0
split_gain=0.00548841 0.00829668 0.00981281
threshold=256.46500000000009 107.34000000000002 1546.4100000000001
decision_type=2 2 2
left_child=1 -1 -3
right_child=-2 2 -4
leaf_value=-0.0013167932815849781 -0.0014439689181745053 0.0026932675476101313 -5.0246882892679423e-05
leaf_weight=20 20 22 32
leaf_count=20 20 22 32
internal_value=0 0.000423083 0.00106748
internal_weight=0 74 54
internal_count=94 74 54
is_linear=0
shrinkage=0.1


Tree=133
num_leaves=4
num_cat=0
split_feature=1 0 0
split_gain=0.00543867 0.00581884 0.00592783
threshold=16.155000000000005 1369.3400000000004 1783.3400000000001
decision_type=2 2 2
left_child=-1 -2 -3
right_child=1 2 -4
leaf_value=-0.0013949359368000713 0.0017905739263038745 -0.0014973943668883296 0.0007107994725717412
leaf_weight=21 22 20 31
leaf_count=21 22 20 31
internal_value=0 0.000431226 -0.000155159
internal_weight=0 73 51
internal_count=94 73 51
is_linear=0
shrinkage=0.1


Tree=134
num_leaves=4
num_cat=0
split_feature=1 9 2
split_gain=0.00458835 0.00962575 0.00602783
threshold=30.185000000000002 21.500000000000004 201.82000000000002
decision_type=2 2 2
left_child=1 -1 -2
right_child=2 -3 -4
leaf_value=0.00087645394431257791 0.0017386039810774563 -0.001965649060618419 -0.00057057660771533849
leaf_weight=22 26 26 20
leaf_count=22 26 26 20
internal_value=0 -0.000663019 0.000734612
internal_weight=0 48 46
internal_count=94 48 46
is_linear=0
shrinkage=0.1


Tree=135
num_leaves=4
num_cat=0
split_feature=2 4 4
split_gain=0.0211439 0.0103121 0.00027216
threshold=156.20500000000001 1659.9700000000003 1279.7250000000001
decision_type=2 2 2
left_child=-1 2 -2
right_child=1 -3 -4
leaf_value=-0.0018509802836421377 0.00049776198109611873 0.0029734362396300726 -2.3927497677505018e-05
leaf_weight=37 20 21 20
leaf_count=37 20 21 20
internal_value=0 0.001179 0.000236917
internal_weight=0 61 40
internal_count=98 61 40
is_linear=0
shrinkage=0.1


Tree=136
num_leaves=4
num_cat=0
split_feature=2 9 4
split_gain=0.0172635 0.0130656 0.00854697
threshold=107.34000000000002 31.500000000000004 1611.5700000000004
decision_type=2 2 2
left_child=-1 2 -2
right_child=1 -3 -4
leaf_value=-0.0024353462848177351 -0.0010948816794111875 0.0027998184541832994 0.0014858110186954342
leaf_weight=22 33 22 21
leaf_count=22 33 22 21
internal_value=0 0.000745618 -9.1279e-05
internal_weight=0 76 54
internal_count=98 76 54
is_linear=0
shrinkage=0.1


Tree=137
num_leaves=3
num_cat=0
split_feature=2 0
split_gain=0.0144208 0.00813053
threshold=156.20500000000001 1588.5950000000003
decision_type=2 2
left_child=-1 -2
right_child=1 -3
leaf_value=-0.0015291939867106644 -0.00051083666216784527 0.0018713108135240252
leaf_weight=37 23 38
leaf_count=37 23 38
internal_value=0 0.000973124
internal_weight=0 61
internal_count=98 61
is_linear=0
shrinkage=0.1


Tree=138
num_leaves=4
num_cat=0
split_feature=2 9 4
split_gain=0.0120902 0.0107607 0.00612478
threshold=107.34000000000002 31.500000000000004 1611.5700000000004
decision_type=2 2 2
left_child=-1 2 -2
right_child=1 -3 -4
leaf_value=-0.0020388922696425158 -0.00098594133248270472 0.0024873554530627606 0.0011986773654436029
leaf_weight=22 33 22 21
leaf_count=22 33 22 21
internal_value=0 0.000623131 -0.000136367
internal_weight=0 76 54
internal_count=98 76 54
is_linear=0
shrinkage=0.1


Tree=139
num_leaves=4
num_cat=0
split_feature=2 4 4
split_gain=0.0103164 0.0110886 0.00539467
threshold=175.53000000000003 1329.7100000000003 1105.9450000000004
decision_type=2 2 2
left_child=2 -2 -1
right_child=1 -3 -4
leaf_value=-6.380173462358389e-06 -0.00084721361553030368 0.0020922575272958386 -0.0022209334457081488
leaf_weight=22 21 33 22
leaf_count=22 21 33 22
internal_value=0 0.00094913 -0.00111366
internal_weight=0 54 44
internal_count=98 54 44
is_linear=0
shrinkage=0.1


Tree=140
num_leaves=4
num_cat=0
split_feature=0 0 1
split_gain=0.0115524 0.0114349 0.00633571
threshold=2149.5950000000007 1243.4800000000002 30.185000000000002
decision_type=2 2 2
left_child=1 -1 -3
right_child=-2 2 -4
leaf_value=-0.00098026336110647642 -0.0020288669991052966 0.00013976176798512991 0.0023586903466850579
leaf_weight=31 22 22 31
leaf_count=31 22 22 31
internal_value=0 0.000545309 0.00143763
internal_weight=0 84 53
internal_count=106 84 53
is_linear=0
shrinkage=0.1


Tree=141
num_leaves=4
num_cat=0
split_feature=0 0 1
split_gain=0.00935746 0.00926224 0.00513192
threshold=2149.5950000000007 1243.4800000000002 30.185000000000002
decision_type=2 2 2
left_child=1 -1 -3
right_child=-2 2 -4
leaf_value=-0.00088223699149825882 -0.0018259802610952069 0.00012578566410494124 0.002122821303595218
leaf_weight=31 22 22 31
leaf_count=31 22 22 31
internal_value=0 0.000490779 0.00129386
internal_weight=0 84 53
internal_count=106 84 53
is_linear=0
shrinkage=0.1


Tree=142
num_leaves=4
num_cat=0
split_feature=0 0 1
split_gain=0.00757954 0.00750241 0.00415686
threshold=2149.5950000000007 1243.4800000000002 30.185000000000002
decision_type=2 2 2
left_child=1 -1 -3
right_child=-2 2 -4
leaf_value=-0.00079401323812142502 -0.0016433821017430587 0.00011320703832263297 0.0019105391118735557
leaf_weight=31 22 22 31
leaf_count=31 22 22 31
internal_value=0 0.000441701 0.00116448
internal_weight=0 84 53
internal_count=106 84 53
is_linear=0
shrinkage=0.1


Tree=143
num_leaves=4
num_cat=0
split_feature=0 0 1
split_gain=0.00613943 0.00607696 0.00336705
threshold=2149.5950000000007 1243.4800000000002 30.185000000000002
decision_type=2 2 2
left_child=1 -1 -3
right_child=-2 2 -4
leaf_value=-0.00071461197709844966 -0.0014790440009991553 0.00010188643037426201 0.0017194852593445009
leaf_weight=31 22 22 31
leaf_count=31 22 22 31
internal_value=0 0.000397531 0.00104803
internal_weight=0 84 53
internal_count=106 84 53
is_linear=0
shrinkage=0.1


Tree=144
num_leaves=5
num_cat=0
split_feature=9 1 2 4
split_gain=0.00501265 0.00856737 0.00705568 0.00292637
threshold=18.500000000000004 32.675000000000004 197.73000000000002 1164.4900000000002
decision_type=2 2 2 2
left_child=1 -1 3 -2
right_child=2 -3 -4 -5
leaf_value=0.0023486483958549799 -0.00068341107107698922 -0.00040431902654325733 -0.002128461915999651 0.0010272515917313285
leaf_weight=20 20 26 20 20
leaf_count=20 20 26 20 20
internal_value=0 0.000792623 -0.000594874 0.00017192
internal_weight=0 46 60 40
internal_count=106 46 60 40
is_linear=0
shrinkage=0.1


Tree=145
num_leaves=4
num_cat=0
split_feature=2 0 1
split_gain=0.00476839 0.00583244 0.0100973
threshold=107.34000000000002 2149.5950000000007 30.185000000000002
decision_type=2 2 2
left_child=-1 2 -2
right_child=1 -3 -4
leaf_value=-0.0010160992675948711 4.6592804655018781e-05 -0.00081712602259358396 0.0026048222840203113
leaf_weight=21 36 20 27
leaf_count=21 36 20 27
internal_value=0 0.000670663 0.00114298
internal_weight=0 83 63
internal_count=104 83 63
is_linear=0
shrinkage=0.1


Tree=146
num_leaves=4
num_cat=0
split_feature=2 0 1
split_gain=0.0038624 0.00472428 0.0081788
threshold=107.34000000000002 2149.5950000000007 30.185000000000002
decision_type=2 2 2
left_child=-1 2 -2
right_child=1 -3 -4
leaf_value=-0.00091448929604320307 4.1933594426761075e-05 -0.00073541346486308615 0.0023443401497961198
leaf_weight=21 36 20 27
leaf_count=21 36 20 27
internal_value=0 0.000603597 0.00102868
internal_weight=0 83 63
internal_count=104 83 63
is_linear=0
shrinkage=0.1


Tree=147
num_leaves=4
num_cat=0
split_feature=1 9 9
split_gain=0.00414205 0.0126825 0.00253271
threshold=42.445000000000007 21.500000000000004 18.500000000000004
decision_type=2 2 2
left_child=1 -1 -2
right_child=2 -3 -4
leaf_value=0.0022186814071310144 -0.0013266417989507319 -0.00059810853316307529 0.000264805885090027
leaf_weight=31 20 33 20
leaf_count=31 20 33 20
internal_value=0 0.000766274 -0.000530918
internal_weight=0 64 40
internal_count=104 64 40
is_linear=0
shrinkage=0.1


Tree=148
num_leaves=4
num_cat=0
split_feature=0 0 9
split_gain=0.0041971 0.00519693 0.00513537
threshold=1783.3400000000001 1470.0350000000001 31.500000000000004
decision_type=2 2 2
left_child=1 2 -1
right_child=-2 -3 -4
leaf_value=0.0015351289395420325 0.0010778354793345849 -0.0014152870969155629 -0.00067639181479102093
leaf_weight=21 38 24 21
leaf_count=21 38 24 21
internal_value=0 -0.000241415 0.000429369
internal_weight=0 66 42
internal_count=104 66 42
is_linear=0
shrinkage=0.1


Tree=149
num_leaves=4
num_cat=0
split_feature=4 2 9
split_gain=0.00351287 0.00359829 0.0048864
threshold=1659.9700000000003 107.34000000000002 18.500000000000004
decision_type=2 2 2
left_child=1 -1 -3
right_child=-2 2 -4
leaf_value=-0.0012934790179133415 0.00115120025544331 0.001305381663143635 -0.00058759549283422536
leaf_weight=20 29 25 30
leaf_count=20 29 25 30
internal_value=0 -0.000144839 0.000272849
internal_weight=0 75 55
internal_count=104 75 55
is_linear=0
shrinkage=0.1


Tree=150
num_leaves=4
num_cat=0
split_feature=9 8 1
split_gain=0.0037741 0.0144276 0.00606892
threshold=20.500000000000004 2015.5000000000002 34.705000000000005
decision_type=2 2 2
left_child=2 -2 -1
right_child=1 -3 -4
leaf_value=0.0014551642397418619 0.00077165285613210429 -0.0028174660140090663 -0.00086187313561542675
leaf_weight=20 21 24 26
leaf_count=20 21 24 26
internal_value=0 -0.00114254 0.000145534
internal_weight=0 45 46
internal_count=91 45 46
is_linear=0
shrinkage=0.1


Tree=151
num_leaves=4
num_cat=0
split_feature=9 8 1
split_gain=0.00305702 0.0116863 0.00491583
threshold=20.500000000000004 2015.5000000000002 34.705000000000005
decision_type=2 2 2
left_child=2 -2 -1
right_child=1 -3 -4
leaf_value=0.0013096477650105954 0.00069448760089774924 -0.0025357194050836069 -0.00077568579536791034
leaf_weight=20 21 24 26
leaf_count=20 21 24 26
internal_value=0 -0.00102829 0.000130981
internal_weight=0 45 46
internal_count=91 45 46
is_linear=0
shrinkage=0.1


Tree=152
num_leaves=4
num_cat=0
split_feature=1 0 9
split_gain=0.00352097 0.00833213 0.00203907
threshold=30.185000000000002 1900.2650000000001 23.500000000000004
decision_type=2 2 2
left_child=2 -2 -1
right_child=1 -3 -4
leaf_value=-0.0003731515787963179 0.0014043012938390557 -0.0012086142795970259 -0.0017666968184390239
leaf_weight=21 26 23 21
leaf_count=21 26 23 21
internal_value=0 0.000177831 -0.00106992
internal_weight=0 49 42
internal_count=91 49 42
is_linear=0
shrinkage=0.1


Tree=153
num_leaves=4
num_cat=0
split_feature=1 0 0
split_gain=0.00285199 0.00674902 0.00213649
threshold=30.185000000000002 1900.2650000000001 1243.4800000000002
decision_type=2 2 2
left_child=2 -2 -1
right_child=1 -3 -4
leaf_value=-0.00021489639300853016 0.0012638711164562177 -0.0010877527645789086 -0.0016429639990251004
leaf_weight=20 26 23 22
leaf_count=20 26 23 22
internal_value=0 0.000160048 -0.000962932
internal_weight=0 49 42
internal_count=91 49 42
is_linear=0
shrinkage=0.1


Tree=154
num_leaves=4
num_cat=0
split_feature=9 8 1
split_gain=0.00236069 0.00927595 0.00422715
threshold=20.500000000000004 2015.5000000000002 34.705000000000005
decision_type=2 2 2
left_child=2 -2 -1
right_child=1 -3 -4
leaf_value=0.0012743286043405532 0.00069747679711629944 -0.0021803861968995382 -0.00065942435847738626
leaf_weight=20 21 24 26
leaf_count=20 21 24 26
internal_value=0 -0.000837383 0.000181338
internal_weight=0 45 46
internal_count=91 45 46
is_linear=0
shrinkage=0.1


Tree=155
num_leaves=4
num_cat=0
split_feature=1 2 4
split_gain=0.0140779 0.00551556 0.00444422
threshold=25.735000000000003 156.20500000000001 1025.1100000000001
decision_type=2 2 2
left_child=2 -2 -1
right_child=1 -3 -4
leaf_value=0.00036300711333751682 -0.0021555736152963204 -0.00014580469546166973 0.0023813895473722372
leaf_weight=20 22 36 24
leaf_count=20 22 36 24
internal_value=0 -0.000908131 0.00146394
internal_weight=0 58 44
internal_count=102 58 44
is_linear=0
shrinkage=0.1


Tree=156
num_leaves=4
num_cat=0
split_feature=1 2 4
split_gain=0.0114031 0.0044676 0.00359982
threshold=25.735000000000003 156.20500000000001 1025.1100000000001
decision_type=2 2 2
left_child=2 -2 -1
right_child=1 -3 -4
leaf_value=0.00032670644111931329 -0.0019400162855163217 -0.00013122420609256046 0.0021432505382108502
leaf_weight=20 22 36 24
leaf_count=20 22 36 24
internal_value=0 -0.000817318 0.00131755
internal_weight=0 58 44
internal_count=102 58 44
is_linear=0
shrinkage=0.1


Tree=157
num_leaves=4
num_cat=0
split_feature=1 2 2
split_gain=0.00944632 0.00448314 0.00926095
threshold=50.850000000000009 207.715 148.84000000000003
decision_type=2 2 2
left_child=1 2 -1
right_child=-2 -3 -4
leaf_value=0.0016542911645956338 -0.0013300847494974732 0.002009263136424124 -0.0010697922532786972
leaf_weight=24 32 20 26
leaf_count=24 32 20 26
internal_value=0 0.000743909 0.000237768
internal_weight=0 70 50
internal_count=102 70 50
is_linear=0
shrinkage=0.1


Tree=158
num_leaves=4
num_cat=0
split_feature=1 2 4
split_gain=0.00814269 0.00375743 0.00289947
threshold=25.735000000000003 156.20500000000001 1080.9850000000004
decision_type=2 2 2
left_child=2 -2 -1
right_child=1 -3 -4
leaf_value=0.0003340685578144115 -0.0017238951163810934 -6.5085357184418372e-05 0.0019592875198993303
leaf_weight=23 22 36 21
leaf_count=23 22 36 21
internal_value=0 -0.000694289 0.00110974
internal_weight=0 58 44
internal_count=102 58 44
is_linear=0
shrinkage=0.1


Tree=159
num_leaves=4
num_cat=0
split_feature=1 2 2
split_gain=0.00675812 0.0034383 0.0077285
threshold=50.850000000000009 207.715 148.84000000000003
decision_type=2 2 2
left_child=1 2 -1
right_child=-2 -3 -4
leaf_value=0.0014766517716149489 -0.0011283623534836806 0.0017340135015547276 -0.0010118636495183009
leaf_weight=24 32 20 26
leaf_count=24 32 20 26
internal_value=0 0.000625878 0.000182624
internal_weight=0 70 50
internal_count=102 70 50
is_linear=0
shrinkage=0.1


Tree=160
num_leaves=4
num_cat=0
split_feature=9 4 0
split_gain=0.00578023 0.00701814 0.00868571
threshold=13.500000000000002 970.0150000000001 1922.6050000000002
decision_type=2 2 2
left_child=-1 -2 -3
right_child=1 2 -4
leaf_value=-0.0016664755810052159 -0.0015181385361674156 0.0017634957298186833 -0.00083870901422494141
leaf_weight=30 22 29 23
leaf_count=30 22 29 23
internal_value=0 -2.09186e-05 0.000612521
internal_weight=0 74 52
internal_count=104 74 52
is_linear=0
shrinkage=0.1


Tree=161
num_leaves=4
num_cat=0
split_feature=1 4 4
split_gain=0.00498827 0.0126823 0.003315
threshold=52.095000000000006 1429.2800000000002 970.0150000000001
decision_type=2 2 2
left_child=1 2 -1
right_child=-2 -3 -4
leaf_value=-0.00083004487678408625 0.00064167200248145193 -0.0028364209020646344 0.00078271629217152409
leaf_weight=25 30 23 26
leaf_count=25 30 23 26
internal_value=0 -0.000887002 -7.85291e-06
internal_weight=0 74 51
internal_count=104 74 51
is_linear=0
shrinkage=0.1


Tree=162
num_leaves=4
num_cat=0
split_feature=9 4 0
split_gain=0.0049003 0.00550171 0.00612716
threshold=13.500000000000002 970.0150000000001 1922.6050000000002
decision_type=2 2 2
left_child=-1 -2 -3
right_child=1 2 -4
leaf_value=-0.0014795119604483868 -0.0012900097464973277 0.0015631709127397889 -0.00062241734248464525
leaf_weight=30 22 29 23
leaf_count=30 22 29 23
internal_value=0 3.56236e-05 0.000596468
internal_weight=0 74 52
internal_count=104 74 52
is_linear=0
shrinkage=0.1


Tree=163
num_leaves=4
num_cat=0
split_feature=9 2 2
split_gain=0.00396924 0.00487296 0.00701029
threshold=13.500000000000002 201.82000000000002 162.36000000000004
decision_type=2 2 2
left_child=-1 2 -2
right_child=1 -3 -4
leaf_value=-0.00133156084009291 -0.00041333799539455059 -0.0011392171181796584 0.0019857399997168352
leaf_weight=30 29 24 21
leaf_count=30 29 24 21
internal_value=0 3.20612e-05 0.000594275
internal_weight=0 74 50
internal_count=104 74 50
is_linear=0
shrinkage=0.1


Tree=164
num_leaves=4
num_cat=0
split_feature=1 4 4
split_gain=0.00380674 0.0103073 0.00206954
threshold=52.095000000000006 1429.2800000000002 970.0150000000001
decision_type=2 2 2
left_child=1 2 -1
right_child=-2 -3 -4
leaf_value=-0.00056744634173810482 0.0006250378144128869 -0.0024678068367116478 0.00070683519991759502
leaf_weight=25 30 23 26
leaf_count=25 30 23 26
internal_value=0 -0.000710378 8.21874e-05
internal_weight=0 74 51
internal_count=104 74 51
is_linear=0
shrinkage=0.1


Tree=165
num_leaves=4
num_cat=0
split_feature=2 9 2
split_gain=0.0102153 0.00835497 0.0116926
threshold=134.10000000000005 31.500000000000004 263.48500000000007
decision_type=2 2 2
left_child=-1 2 -2
right_child=1 -3 -4
leaf_value=0.0020414798573651556 -0.0021021375730116334 0.001173510964261368 0.00091353080701082944
leaf_weight=23 36 25 20
leaf_count=23 36 25 20
internal_value=0 -0.000346525 -0.00102511
internal_weight=0 81 56
internal_count=104 81 56
is_linear=0
shrinkage=0.1


Tree=166
num_leaves=4
num_cat=0
split_feature=2 4 2
split_gain=0.00827437 0.00789467 0.00628311
threshold=134.10000000000005 1679.1350000000002 207.715
decision_type=2 2 2
left_child=-1 2 -2
right_child=1 -3 -4
leaf_value=0.0018373319393266804 -0.0019935628376170542 0.0011656981732230634 0.0001262651687418973
leaf_weight=23 29 25 27
leaf_count=23 29 25 27
internal_value=0 -0.000311873 -0.000971503
internal_weight=0 81 56
internal_count=104 81 56
is_linear=0
shrinkage=0.1


Tree=167
num_leaves=4
num_cat=0
split_feature=9 1 2
split_gain=0.0071157 0.00958204 0.00829905
threshold=17.500000000000004 34.705000000000005 171.35500000000002
decision_type=2 2 2
left_child=1 -1 -2
right_child=2 -3 -4
leaf_value=0.00059126316893683833 0.0022469928627833723 -0.0023632220036926728 -0.00013854240981994994
leaf_weight=23 25 21 35
leaf_count=23 25 21 35
internal_value=0 -0.000818832 0.000855431
internal_weight=0 44 60
internal_count=104 44 60
is_linear=0
shrinkage=0.1


Tree=168
num_leaves=4
num_cat=0
split_feature=2 0 2
split_gain=0.00593931 0.00893433 0.00425688
threshold=148.84000000000003 2039.2200000000003 207.715
decision_type=2 2 2
left_child=-1 2 -2
right_child=1 -3 -4
leaf_value=0.0013476782638964981 -0.0019010776896071287 0.0013035761696063792 -8.6134934099391111e-05
leaf_weight=29 28 23 24
leaf_count=29 28 23 24
internal_value=0 -0.000337535 -0.00106341
internal_weight=0 75 52
internal_count=104 75 52
is_linear=0
shrinkage=0.1


Tree=169
num_leaves=4
num_cat=0
split_feature=9 1 1
split_gain=0.00607439 0.00792637 0.00778967
threshold=17.500000000000004 34.705000000000005 34.705000000000005
decision_type=2 2 2
left_child=2 -2 -1
right_child=1 -3 -4
leaf_value=0.00049808223063693095 -0.00023149339557515785 0.0020879646830368214 -0.0021657829150734916
leaf_weight=23 34 26 21
leaf_count=23 34 26 21
internal_value=0 0.000773605 -0.000773308
internal_weight=0 60 44
internal_count=104 60 44
is_linear=0
shrinkage=0.1


Tree=170
num_leaves=4
num_cat=0
split_feature=1 4 2
split_gain=0.00719664 0.0069472 0.00408447
threshold=17.835000000000004 1581.5500000000002 171.35500000000002
decision_type=2 2 2
left_child=-1 2 -2
right_child=1 -3 -4
leaf_value=0.0022814926056360656 -0.0014759398380357943 0.0016121470634971047 0.00035963646067237415
leaf_weight=22 22 24 27
leaf_count=22 22 24 27
internal_value=0 0.000218233 -0.0004645
internal_weight=0 73 49
internal_count=95 73 49
is_linear=0
shrinkage=0.1


Tree=171
num_leaves=4
num_cat=0
split_feature=1 4 9
split_gain=0.00582927 0.00562723 0.00346594
threshold=17.835000000000004 1581.5500000000002 15.500000000000002
decision_type=2 2 2
left_child=-1 2 -2
right_child=1 -3 -4
leaf_value=0.0020533433483003387 -0.001430786328855902 0.0014509323511447292 0.00028038918490296813
leaf_weight=22 20 24 29
leaf_count=22 20 24 29
internal_value=0 0.00019641 -0.00041805
internal_weight=0 73 49
internal_count=95 73 49
is_linear=0
shrinkage=0.1


Tree=172
num_leaves=4
num_cat=0
split_feature=4 4 9
split_gain=0.00484015 0.00736688 0.00573318
threshold=1679.1350000000002 951.45000000000016 27.500000000000004
decision_type=2 2 2
left_child=1 -1 -3
right_child=-2 2 -4
leaf_value=0.0018072674935683609 0.0018640152525304901 0.000364531133549683 -0.0017811436677584427
leaf_weight=20 22 33 20
leaf_count=20 22 33 20
internal_value=0 0.000171945 -0.000445157
internal_weight=0 73 53
internal_count=95 73 53
is_linear=0
shrinkage=0.1


Tree=173
num_leaves=3
num_cat=0
split_feature=4 4
split_gain=0.00419496 0.00830954
threshold=1491.4200000000003 951.45000000000016
decision_type=2 2
left_child=1 -1
right_child=-2 -3
leaf_value=0.0016265407472383234 0.0013393987152675118 -0.00089169106029562267
leaf_weight=20 37 38
leaf_count=20 37 38
internal_value=0 -2.33353e-05
internal_weight=0 58
internal_count=95 58
is_linear=0
shrinkage=0.1


Tree=174
num_leaves=4
num_cat=0
split_feature=2 9 9
split_gain=0.00385843 0.00307043 0.00568197
threshold=151.51000000000002 12.500000000000002 29.500000000000004
decision_type=2 2 2
left_child=-1 -2 -3
right_child=1 2 -4
leaf_value=-0.00048140727022352318 0.0019205747917294504 -0.00061967202636878946 0.0016327012097463013
leaf_weight=30 20 24 21
leaf_count=30 20 24 21
internal_value=0 0.000889632 0.000431435
internal_weight=0 65 45
internal_count=95 65 45
is_linear=0
shrinkage=0.1


Tree=175
num_leaves=3
num_cat=0
split_feature=2 2
split_gain=0.00712782 0.0123973
threshold=156.20500000000001 201.82000000000002
decision_type=2 2
left_child=-1 -2
right_child=1 -3
leaf_value=-0.0018877255884997017 0.0018522901859666621 -0.001221079052026783
leaf_weight=35 21 35
leaf_count=35 21 35
internal_value=0 -6.85656e-05
internal_weight=0 56
internal_count=91 56
is_linear=0
shrinkage=0.1


Tree=176
num_leaves=3
num_cat=0
split_feature=0 2
split_gain=0.00626173 0.00769346
threshold=1900.2650000000001 156.20500000000001
decision_type=2 2
left_child=1 -1
right_child=-2 -3
leaf_value=-0.0012974149772586924 -0.0019356968205621735 0.00091523939997635107
leaf_weight=30 28 33
leaf_count=30 28 33
internal_value=0 -0.000138406
internal_weight=0 63
internal_count=91 63
is_linear=0
shrinkage=0.1


Tree=177
num_leaves=4
num_cat=0
split_feature=1 0 8
split_gain=0.00551354 0.00444796 0.0100706
threshold=16.155000000000005 1900.2650000000001 2015.5000000000002
decision_type=2 2 2
left_child=-1 2 -2
right_child=1 -3 -4
leaf_value=-0.002088866970734671 -0.00093868547981535962 -0.0013525774877685447 0.0019811414758719149
leaf_weight=20 27 23 21
leaf_count=20 27 23 21
internal_value=0 -0.000209152 0.000338739
internal_weight=0 71 48
internal_count=91 71 48
is_linear=0
shrinkage=0.1


Tree=178
num_leaves=3
num_cat=0
split_feature=2 2
split_gain=0.00452968 0.0104086
threshold=156.20500000000001 201.82000000000002
decision_type=2 2
left_child=-1 -2
right_child=1 -3
leaf_value=-0.0014524766390344927 0.0017577736372394221 -0.0010583144253385919
leaf_weight=35 21 35
leaf_count=35 21 35
internal_value=0 -2.2814e-06
internal_weight=0 56
internal_count=91 56
is_linear=0
shrinkage=0.1


Tree=179
num_leaves=3
num_cat=0
split_feature=0 1
split_gain=0.00460736 0.00600168
threshold=1900.2650000000001 30.185000000000002
decision_type=2 2
left_child=1 -1
right_child=-2 -3
leaf_value=-0.00093109444167245841 -0.0015713684576829628 0.0010271562600572563
leaf_weight=34 28 29
leaf_count=34 28 29
internal_value=0 -2.96775e-05
internal_weight=0 63
internal_count=91 63
is_linear=0
shrinkage=0.1


Tree=180
num_leaves=4
num_cat=0
split_feature=9 0 0
split_gain=0.00820094 0.0128719 0.0112355
threshold=25.500000000000004 1369.3400000000004 1783.3400000000001
decision_type=2 2 2
left_child=2 -2 -1
right_child=1 -3 -4
leaf_value=-5.3956152899473e-05 0.00093618248250674119 -0.0025250780296378903 0.0029049130079026025
leaf_weight=33 22 21 21
leaf_count=33 22 21 21
internal_value=0 -0.000754201 0.00109672
internal_weight=0 43 54
internal_count=97 43 54
is_linear=0
shrinkage=0.1


Tree=181
num_leaves=4
num_cat=0
split_feature=9 1 0
split_gain=0.00664276 0.0130882 0.00910073
threshold=25.500000000000004 34.705000000000005 1783.3400000000001
decision_type=2 2 2
left_child=2 -2 -1
right_child=1 -3 -4
leaf_value=-4.8560544030007088e-05 -0.0023056629579514265 0.0011921343277208507 0.0026144217619384156
leaf_weight=33 23 20 21
leaf_count=33 23 20 21
internal_value=0 -0.00067878 0.000987044
internal_weight=0 43 54
internal_count=97 43 54
is_linear=0
shrinkage=0.1


Tree=182
num_leaves=4
num_cat=0
split_feature=9 0 0
split_gain=0.00538064 0.0115977 0.00737159
threshold=25.500000000000004 1369.3400000000004 1783.3400000000001
decision_type=2 2 2
left_child=2 -2 -1
right_child=1 -3 -4
leaf_value=-4.3704529349325285e-05 0.00099363514984195881 -0.0022918465857704479 0.0023529795120425879
leaf_weight=33 22 21 21
leaf_count=33 22 21 21
internal_value=0 -0.000610902 0.000888339
internal_weight=0 43 54
internal_count=97 43 54
is_linear=0
shrinkage=0.1


Tree=183
num_leaves=4
num_cat=0
split_feature=0 8 9
split_gain=0.00442797 0.0108681 0.0131449
threshold=1162.4650000000004 2015.5000000000002 25.500000000000004
decision_type=2 2 2
left_child=-1 -2 -3
right_child=1 2 -4
leaf_value=0.0015270590409636499 -0.0019084648112766445 0.0019831732606455203 -0.0012129558911758731
leaf_weight=20 24 31 22
leaf_count=20 24 31 22
internal_value=0 -0.000142985 0.000656478
internal_weight=0 77 53
internal_count=97 77 53
is_linear=0
shrinkage=0.1


Tree=184
num_leaves=4
num_cat=0
split_feature=0 8 9
split_gain=0.00358666 0.00880312 0.0111452
threshold=1162.4650000000004 2015.5000000000002 14.500000000000002
decision_type=2 2 2
left_child=-1 -2 -3
right_child=1 2 -4
leaf_value=0.0013743530539795758 -0.0017176183018212518 0.0022469890496248138 -0.00067889144702348858
leaf_weight=20 24 23 30
leaf_count=20 24 23 30
internal_value=0 -0.000128686 0.00059083
internal_weight=0 77 53
internal_count=97 77 53
is_linear=0
shrinkage=0.1


Tree=185
num_leaves=4
num_cat=0
split_feature=2 9 1
split_gain=0.00428634 0.0137533 0.00440935
threshold=245.27500000000001 23.500000000000004 33.185000000000009
decision_type=2 2 2
left_child=1 -1 -3
right_child=-2 2 -4
leaf_value=-0.002167181102859397 0.00092024364969872218 -0.00038799267661358632 0.0016867040269426072
leaf_weight=31 26 21 20
leaf_count=31 26 21 20
internal_value=0 -0.000577727 0.000624054
internal_weight=0 72 41
internal_count=98 72 41
is_linear=0
shrinkage=0.1


Tree=186
num_leaves=4
num_cat=0
split_feature=4 4 9
split_gain=0.00372341 0.0117458 0.00778319
threshold=1241.1100000000004 1679.1350000000002 31.500000000000004
decision_type=2 2 2
left_child=2 -2 -1
right_child=1 -3 -4
leaf_value=0.0017346989231858364 -0.0021935158374684831 0.00075616491441097525 -0.00093636706471443185
leaf_weight=24 27 27 20
leaf_count=24 27 27 20
internal_value=0 -0.000718675 0.000520578
internal_weight=0 54 44
internal_count=98 54 44
is_linear=0
shrinkage=0.1


Tree=187
num_leaves=4
num_cat=0
split_feature=2 9 1
split_gain=0.00332682 0.0113527 0.00341746
threshold=245.27500000000001 23.500000000000004 33.185000000000009
decision_type=2 2 2
left_child=1 -1 -3
right_child=-2 2 -4
leaf_value=-0.0019402618670175153 0.00082352683977940345 -0.00029527486213261171 0.0015312229131814094
leaf_weight=31 26 21 20
leaf_count=31 26 21 20
internal_value=0 -0.000496173 0.0005957
internal_weight=0 72 41
internal_count=98 72 41
is_linear=0
shrinkage=0.1


Tree=188
num_leaves=4
num_cat=0
split_feature=4 9 9
split_gain=0.00304006 0.00929022 0.00596751
threshold=1429.2800000000002 17.500000000000004 29.500000000000004
decision_type=2 2 2
left_child=2 -2 -1
right_child=1 -3 -4
leaf_value=0.0013119055656716228 -0.0022658083188746656 0.00067472662988372824 -0.0007800256498157978
leaf_weight=30 21 22 25
leaf_count=30 21 22 25
internal_value=0 -0.000761349 0.000361028
internal_weight=0 43 55
internal_count=98 43 55
is_linear=0
shrinkage=0.1


Tree=189
num_leaves=4
num_cat=0
split_feature=2 9 0
split_gain=0.00268853 0.00906249 0.00338892
threshold=245.27500000000001 23.500000000000004 1369.3400000000004
decision_type=2 2 2
left_child=1 -1 -3
right_child=-2 2 -4
leaf_value=-0.0017232822900217389 0.00075331366298576961 0.0014741026679985225 -0.00034475107316947766
leaf_weight=31 26 20 21
leaf_count=31 26 20 21
internal_value=0 -0.000433048 0.000542495
internal_weight=0 72 41
internal_count=98 72 41
is_linear=0
shrinkage=0.1


Tree=190
num_leaves=4
num_cat=0
split_feature=2 0 9
split_gain=0.00738488 0.00482123 0.00373723
threshold=190.92000000000004 1655.0650000000003 23.500000000000004
decision_type=2 2 2
left_child=2 -2 -1
right_child=1 -3 -4
leaf_value=-0.00016509923999282448 -0.0020971166598610582 5.1350478315725929e-06 0.001563322309661528
leaf_weight=22 20 24 29
leaf_count=22 20 24 29
internal_value=0 -0.000950434 0.000817729
internal_weight=0 44 51
internal_count=95 44 51
is_linear=0
shrinkage=0.1


Tree=191
num_leaves=4
num_cat=0
split_feature=2 0 9
split_gain=0.00598176 0.0039052 0.00302716
threshold=190.92000000000004 1655.0650000000003 23.500000000000004
decision_type=2 2 2
left_child=2 -2 -1
right_child=1 -3 -4
leaf_value=-0.00014858932911672375 -0.0018874049081932754 4.6215582794199385e-06 0.0014069900880086012
leaf_weight=22 20 24 29
leaf_count=22 20 24 29
internal_value=0 -0.00085539 0.000735956
internal_weight=0 44 51
internal_count=95 44 51
is_linear=0
shrinkage=0.1


Tree=192
num_leaves=4
num_cat=0
split_feature=4 0 9
split_gain=0.00527546 0.00662788 0.0074923
threshold=1025.1100000000001 1546.4100000000001 20.500000000000004
decision_type=2 2 2
left_child=-1 -2 -3
right_child=1 2 -4
leaf_value=-0.0011835882015509048 0.0018961653113365173 -0.0013334976240562705 0.0012409546272829175
leaf_weight=27 22 26 20
leaf_count=27 22 26 20
internal_value=0 0.000468585 -0.000214171
internal_weight=0 68 46
internal_count=95 68 46
is_linear=0
shrinkage=0.1


Tree=193
num_leaves=4
num_cat=0
split_feature=2 0 1
split_gain=0.004597 0.00339183 0.00264639
threshold=190.92000000000004 1655.0650000000003 32.675000000000004
decision_type=2 2 2
left_child=2 -2 -1
right_child=1 -3 -4
leaf_value=6.6647220463041337e-05 -0.0017115929491410499 5.1694089779630307e-05 0.0015420678188093008
leaf_weight=31 20 24 20
leaf_count=31 20 24 20
internal_value=0 -0.0007498 0.000645244
internal_weight=0 44 51
internal_count=95 44 51
is_linear=0
shrinkage=0.1


Tree=194
num_leaves=4
num_cat=0
split_feature=4 0 9
split_gain=0.00389502 0.00566871 0.0060323
threshold=1025.1100000000001 1546.4100000000001 20.500000000000004
decision_type=2 2 2
left_child=-1 -2 -3
right_child=1 2 -4
leaf_value=-0.0010169624109511023 0.001722932162440636 -0.0012331011812560834 0.0010769351571798325
leaf_weight=27 22 26 20
leaf_count=27 22 26 20
internal_value=0 0.000402685 -0.000228738
internal_weight=0 68 46
internal_count=95 68 46
is_linear=0
shrinkage=0.1


Tree=195
num_leaves=4
num_cat=0
split_feature=0 4 1
split_gain=0.00364141 0.00423786 0.00731985
threshold=1900.2650000000001 1025.1100000000001 30.185000000000002
decision_type=2 2 2
left_child=1 -1 -3
right_child=-2 2 -4
leaf_value=-0.00064728760385307775 -0.0010613500209594214 -0.00034446172395964035 0.0022069582779129797
leaf_weight=29 27 23 22
leaf_count=29 27 23 22
internal_value=0 0.000295394 0.000902899
internal_weight=0 74 45
internal_count=101 74 45
is_linear=0
shrinkage=0.1


Tree=196
num_leaves=4
num_cat=0
split_feature=1 9 1
split_gain=0.00299444 0.00753537 0.00136071
threshold=26.880000000000006 21.500000000000004 57.540000000000006
decision_type=2 2 2
left_child=1 -1 -2
right_child=2 -3 -4
leaf_value=0.0017645297581717996 -0.0010759710377358177 -0.00074135884836626549 -6.2403189412389817e-05
leaf_weight=24 27 24 26
leaf_count=24 27 24 26
internal_value=0 0.000511585 -0.000578749
internal_weight=0 48 53
internal_count=101 48 53
is_linear=0
shrinkage=0.1


Tree=197
num_leaves=4
num_cat=0
split_feature=0 4 1
split_gain=0.00295658 0.00321078 0.00659155
threshold=1900.2650000000001 1025.1100000000001 30.185000000000002
decision_type=2 2 2
left_child=1 -1 -3
right_child=-2 2 -4
leaf_value=-0.0005482335590982232 -0.00095022455271747373 -0.0003825927198783535 0.0020385740314271639
leaf_weight=29 27 23 22
leaf_count=29 27 23 22
internal_value=0 0.0002723 0.000801089
internal_weight=0 74 45
internal_count=101 74 45
is_linear=0
shrinkage=0.1


Tree=198
num_leaves=4
num_cat=0
split_feature=1 9 0
split_gain=0.00292421 0.00333224 0.00267584
threshold=23.635000000000002 21.500000000000004 1808.9200000000003
decision_type=2 2 2
left_child=1 -1 -2
right_child=2 -3 -4
leaf_value=0.0015228795516304674 1.6248231829219573e-05 -0.0002605925208296288 -0.0013764087428254162
leaf_weight=20 37 22 22
leaf_count=20 37 22 22
internal_value=0 0.00058868 -0.000503048
internal_weight=0 42 59
internal_count=101 42 59
is_linear=0
shrinkage=0.1


Tree=199
num_leaves=4
num_cat=0
split_feature=1 9 0
split_gain=0.00242113 0.00529116 0.00125196
threshold=26.880000000000006 21.500000000000004 1588.5950000000003
decision_type=2 2 2
left_child=1 -1 -2
right_child=2 -3 -4
leaf_value=0.0015202378359390424 -0.0010870319812304595 -0.00057959563952560231 -0.00010065927710984984
leaf_weight=24 22 24 31
leaf_count=24 22 24 31
internal_value=0 0.000470321 -0.000510097
internal_weight=0 48 53
internal_count=101 48 53
is_linear=0
shrinkage=0.1


end of trees

feature_importances:
4046=127
4225=119
week=116
Total_Bags=87
Total_Volume=75
year=51
Small_Bags=10

parameters:
[boosting: gbdt]
[objective: regression]
[metric: l2]
[tree_learner: serial]
[device_type: cpu]
[data_sample_strategy: bagging]
[data: ]
[valid: ]
[num_iterations: 200]
[learning_rate: 0.1]
[num_leaves: 32]
[num_threads: 0]
[seed: 0]
[deterministic: 0]
[force_col_wise: 0]
[force_row_wise: 0]
[histogram_pool_size: -1]
[max_depth: 5]
[min_data_in_leaf: 20]
[min_sum_hessian_in_leaf: 0.001]
[bagging_fraction: 0.8]
[pos_bagging_fraction: 1]
[neg_bagging_fraction: 1]
[bagging_freq: 5]
[bagging_seed: 3]
[feature_fraction: 1]
[feature_fraction_bynode: 1]
[feature_fraction_seed: 2]
[extra_trees: 0]
[extra_seed: 6]
[early_stopping_round: 0]
[first_metric_only: 0]
[max_delta_step: 0]
[lambda_l1: 0]
[lambda_l2: 0]
[linear_lambda: 0]
[min_gain_to_split: 0]
[drop_rate: 0.1]
[max_drop: 50]
[skip_drop: 0.5]
[xgboost_dart_mode: 0]
[uniform_drop: 0]
[drop_seed: 4]
[top_rate: 0.2]
[other_rate: 0.1]
[min_data_per_group: 100]
[max_cat_threshold: 32]
[cat_l2: 10]
[cat_smooth: 10]
[max_cat_to_onehot: 4]
[top_k: 20]
[monotone_constraints: ]
[monotone_constraints_method: basic]
[monotone_penalty: 0]
[feature_contri: ]
[forcedsplits_filename: ]
[refit_decay_rate: 0.9]
[cegb_tradeoff: 1]
[cegb_penalty_split: 0]
[cegb_penalty_feature_lazy: ]
[cegb_penalty_feature_coupled: ]
[path_smooth: 0]
[interaction_constraints: ]
[verbosity: 1]
[saved_feature_importance_type: 0]
[use_quantized_grad: 0]
[num_grad_quant_bins: 4]
[quant_train_renew_leaf: 0]
[stochastic_rounding: 1]
[linear_tree: 0]
[max_bin: 255]
[max_bin_by_feature: ]
[min_data_in_bin: 3]
[bin_construct_sample_cnt: 200000]
[data_random_seed: 1]
[is_enable_sparse: 1]
[enable_bundle: 1]
[use_missing: 1]
[zero_as_missing: 0]
[feature_pre_filter: 1]
[pre_partition: 0]
[two_round: 0]
[header: 0]
[label_column: ]
[weight_column: ]
[group_column: ]
[ignore_column: ]
[categorical_feature: ]
[forcedbins_filename: ]
[precise_float_parser: 0]
[parser_config_file: ]
[objective_seed: 5]
[num_class: 1]
[is_unbalance: 0]
[scale_pos_weight: 1]
[sigmoid: 1]
[boost_from_average: 1]
[reg_sqrt: 0]
[alpha: 0.9]
[fair_c: 1]
[poisson_max_delta_step: 0.7]
[tweedie_variance_power: 1.5]
[lambdarank_truncation_level: 30]
[lambdarank_norm: 1]
[label_gain: ]
[lambdarank_position_bias_regularization: 0]
[eval_at: ]
[multi_error_top_k: 1]
[auc_mu_weights: ]
[num_machines: 1]
[local_listen_port: 12400]
[time_out: 120]
[machine_list_filename: ]
[machines: ]
[gpu_platform_id: -1]
[gpu_device_id: -1]
[gpu_use_dp: 0]
[num_gpu: 1]

end of parameters

pandas_categorical:[]
